{"n_estimators": 200, "max_depth": 10, "min_samples_split": 5, "min_samples_leaf": 2, "max_features": "sqrt", "n_classes": 2, "n_features": 12, "feature_names": ["age", "gender", "daily_social_media_hours", "platform_usage", "sleep_hours", "screen_time_before_sleep", "academic_performance", "physical_activity", "social_interaction_level", "stress_level", "anxiety_level", "addiction_level"], "classes": [0, 1], "feature_importances": [0.003326095849497077, 0.0553002837492396, 0.19551341715992862, 0.0038467107484711134, 0.2706849618591126, 0.010882342394463874, 0.022852809016854915, 0.009264056556174854, 0.0132823280590081, 0.21854012427058958, 0.19048185670822237, 0.006025013628437243], "trees": [{"children_left": [1, -1, 3, 4, -1, 6, -1, -1, 9, -1, 11, -1, -1], "children_right": [2, -1, 8, 5, -1, 7, -1, -1, 10, -1, 12, -1, -1], "feature": [9, -2, 4, 2, -2, 10, -2, -2, 11, -2, 6, -2, -2], "threshold": [6.5, -2.0, 5.793978691101074, 5.049999952316284, -2.0, 6.5, -2.0, -2.0, 9.5, -2.0, 3.6200000047683716, -2.0, -2.0], "value": [[[0.5117647058823529, 0.48823529411764705]], [[1.0, 0.0]], [[0.2805358550039401, 0.7194641449960599]], [[0.11542192046556742, 0.8845780795344326]], [[1.0, 0.0]], [[0.0379746835443038, 0.9620253164556962]], [[1.0, 0.0]], [[0.0, 1.0]], [[0.9957983193277311, 0.004201680672268907]], [[1.0, 0.0]], [[0.9166666666666666, 0.08333333333333333]], [[1.0, 0.0]], [[0.5, 0.5]]], "n_node_samples": [1181, 387, 794, 646, 52, 594, 23, 571, 148, 139, 9, 7, 2], "impurity": [0.4997231833910034, 0.0, 0.4036709781222968, 0.20419940148321525, 0.0, 0.07306521390802756, 0.0, 0.0, 0.008368053103594342, 0.0, 0.1527777777777778, 0.0, 0.5]}, {"children_left": [1, 2, -1, 4, -1, 6, 7, -1, -1, 10, -1, 12, 13, -1, -1, 16, 17, 18, 19, -1, -1, 22, -1, -1, -1, -1, -1], "children_right": [26, 3, -1, 5, -1, 9, 8, -1, -1, 11, -1, 15, 14, -1, -1, 25, 24, 21, 20, -1, -1, 23, -1, -1, -1, -1, -1], "feature": [4, 9, -2, 10, -2, 6, 2, -2, -2, 4, -2, 11, 2, -2, -2, 7, 6, 7, 7, -2, -2, 6, -2, -2, -2, -2, -2], "threshold": [5.793978691101074, 6.5, -2.0, 6.5, -2.0, 2.1958688497543335, 5.455050826072693, -2.0, -2.0, 4.100351810455322, -2.0, 1.5, 5.719512939453125, -2.0, -2.0, 1.7983505725860596, 3.774956226348877, 0.6024650931358337, 0.5955287218093872, -2.0, -2.0, 2.280287742614746, -2.0, -2.0, -2.0, -2.0, -2.0], "value": [[[0.49572192513368984, 0.5042780748663102]], [[0.25923016496465046, 0.7407698350353495]], [[1.0, 0.0]], [[0.09674329501915709, 0.9032567049808429]], [[1.0, 0.0]], [[0.01975051975051975, 0.9802494802494802]], [[0.5714285714285714, 0.42857142857142855]], [[1.0, 0.0]], [[0.0, 1.0]], [[0.015706806282722512, 0.9842931937172775]], [[0.3333333333333333, 0.6666666666666666]], [[0.0136986301369863, 0.9863013698630136]], [[0.0625, 0.9375]], [[1.0, 0.0]], [[0.0, 1.0]], [[0.010169491525423728, 0.9898305084745763]], [[0.006802721088435374, 0.9931972789115646]], [[0.005681818181818182, 0.9943181818181818]], [[0.013636363636363636, 0.9863636363636363]], [[0.009174311926605505, 0.9908256880733946]], [[0.5, 0.5]], [[0.0030303030303030303, 0.996969696969697]], [[0.07142857142857142, 0.9285714285714286]], [[0.0015479876160990713, 0.9984520123839009]], [[0.5, 0.5]], [[1.0, 0.0]], [[1.0, 0.0]]], "n_node_samples": [1183, 800, 145, 655, 54, 601, 6, 3, 3, 595, 3, 592, 40, 2, 38, 552, 549, 547, 147, 145, 2, 400, 6, 394, 2, 3, 383], "impurity": [0.4999633961508765, 0.3840597730741011, 0.0, 0.17476805977598686, 0.0, 0.03872087344020814, 0.4897959183673469, 0.0, 0.0, 0.030920205038239112, 0.4444444444444444, 0.027021955338712655, 0.1171875, 0.0, 0.0, 0.020132145935076173, 0.013512888148456637, 0.011299070247933862, 0.026900826446281, 0.01818028785455772, 0.5, 0.006042240587695091, 0.13265306122448983, 0.003091182700878936, 0.5, 0.0, 0.0]}, {"children_left": [1, 2, 3, -1, 5, -1, 7, 8, -1, 10, 11, -1, -1, 14, -1, -1, -1, 18, 19, -1, 21, 22, -1, 24, -1, 26, -1, -1, 29, -1, -1, 32, -1, 34, -1, -1, 37, 38, -1, -1, -1], "children_right": [36, 17, 4, -1, 6, -1, 16, 9, -1, 13, 12, -1, -1, 15, -1, -1, -1, 31, 20, -1, 28, 23, -1, 25, -1, 27, -1, -1, 30, -1, -1, 33, -1, 35, -1, -1, 40, 39, -1, -1, -1], "feature": [4, 1, 2, -2, 4, -2, 6, 10, -2, 7, 9, -2, -2, 9, -2, -2, -2, 4, 10, -2, 5, 9, -2, 6, -2, 2, -2, -2, 6, -2, -2, 6, -2, 5, -2, -2, 5, 10, -2, -2, -2], "threshold": [5.79243803024292, 0.5, 4.968211889266968, -2.0, 4.049999952316284, -2.0, 3.7997403144836426, 6.5, -2.0, 1.7994558811187744, 6.5, -2.0, -2.0, 8.0, -2.0, -2.0, -2.0, 4.997105836868286, 6.5, -2.0, 2.649999976158142, 6.5, -2.0, 2.1850000619888306, -2.0, 4.56859278678894, -2.0, -2.0, 3.305000066757202, -2.0, -2.0, 3.377559542655945, -2.0, 1.899999976158142, -2.0, -2.0, 0.6500000059604645, 7.5, -2.0, -2.0, -2.0], "value": [[[0.5016042780748663, 0.4983957219251337]], [[0.2546036829463571, 0.745396317053643]], [[0.14893617021276595, 0.851063829787234]], [[1.0, 0.0]], [[0.05298759864712514, 0.9470124013528749]], [[1.0, 0.0]], [[0.045454545454545456, 0.9545454545454546]], [[0.03559127439724455, 0.9644087256027555]], [[1.0, 0.0]], [[0.01060070671378092, 0.9893992932862191]], [[0.007246376811594203, 0.9927536231884058]], [[1.0, 0.0]], [[0.0, 1.0]], [[0.14285714285714285, 0.8571428571428571]], [[1.0, 0.0]], [[0.0, 1.0]], [[1.0, 0.0]], [[0.6526717557251909, 0.3473282442748092]], [[0.5418994413407822, 0.4581005586592179]], [[1.0, 0.0]], [[0.31092436974789917, 0.6890756302521008]], [[0.2636363636363636, 0.7363636363636363]], [[1.0, 0.0]], [[0.1, 0.9]], [[1.0, 0.0]], [[0.06896551724137931, 0.9310344827586207]], [[1.0, 0.0]], [[0.0, 1.0]], [[0.8888888888888888, 0.1111111111111111]], [[1.0, 0.0]], [[0.5, 0.5]], [[0.891566265060241, 0.10843373493975904]], [[1.0, 0.0]], [[0.6086956521739131, 0.391304347826087]], [[0.0, 1.0]], [[1.0, 0.0]], [[0.998389694041868, 0.001610305958132045]], [[0.96875, 0.03125]], [[1.0, 0.0]], [[0.8571428571428571, 0.14285714285714285]], [[1.0, 0.0]]], "n_node_samples": [1186, 802, 625, 61, 564, 2, 562, 558, 16, 542, 530, 5, 525, 12, 3, 9, 4, 177, 117, 42, 75, 68, 14, 54, 2, 52, 4, 48, 7, 5, 2, 60, 45, 15, 7, 8, 384, 20, 16, 4, 364], "impurity": [0.499994852583717, 0.37956129515301595, 0.2535083748302399, 0.0, 0.1003598260734726, 0.0, 0.08677685950413228, 0.06864907116804919, 0.0, 0.020976663461898637, 0.014387733669397162, 0.0, 0.0, 0.24489795918367352, 0.0, 0.0, 0.0, 0.45338267000757526, 0.49648887363066074, 0.0, 0.4285008120895417, 0.38826446280991733, 0.0, 0.18000000000000005, 0.0, 0.1284185493460166, 0.0, 0.0, 0.19753086419753085, 0.0, 0.5, 0.19335172013354618, 0.0, 0.4763705103969754, 0.0, 0.0, 0.003215425745706546, 0.060546875, 0.0, 0.24489795918367352, 0.0]}, {"children_left": [1, 2, 3, -1, 5, 6, -1, -1, -1, 10, -1, 12, 13, 14, -1, -1, -1, 18, 19, 20, -1, -1, 23, -1, -1, -1, 27, -1, 29, -1, -1], "children_right": [26, 9, 4, -1, 8, 7, -1, -1, -1, 11, -1, 17, 16, 15, -1, -1, -1, 25, 22, 21, -1, -1, 24, -1, -1, -1, 28, -1, 30, -1, -1], "feature": [4, 2, 6, -2, 11, 5, -2, -2, -2, 9, -2, 1, 7, 10, -2, -2, -2, 4, 4, 10, -2, -2, 11, -2, -2, -2, 11, -2, 4, -2, -2], "threshold": [5.793978691101074, 5.100672483444214, 3.7799999713897705, -2.0, 3.5, 2.25, -2.0, -2.0, -2.0, 6.5, -2.0, 0.5, 1.9873250126838684, 5.5, -2.0, -2.0, -2.0, 5.178953409194946, 5.083515644073486, 5.0, -2.0, -2.0, 8.5, -2.0, -2.0, -2.0, 9.5, -2.0, 5.8500001430511475, -2.0, -2.0], "value": [[[0.5016042780748663, 0.4983957219251337]], [[0.2557953637090328, 0.7442046362909672]], [[0.9953271028037384, 0.004672897196261682]], [[1.0, 0.0]], [[0.96, 0.04]], [[0.8333333333333334, 0.16666666666666666]], [[1.0, 0.0]], [[0.6666666666666666, 0.3333333333333333]], [[1.0, 0.0]], [[0.10318225650916105, 0.896817743490839]], [[1.0, 0.0]], [[0.03125, 0.96875]], [[0.012629161882893225, 0.9873708381171068]], [[0.008073817762399077, 0.9919261822376009]], [[1.0, 0.0]], [[0.0, 1.0]], [[1.0, 0.0]], [[0.21348314606741572, 0.7865168539325843]], [[0.05405405405405406, 0.9459459459459459]], [[0.030303030303030304, 0.9696969696969697]], [[1.0, 0.0]], [[0.0, 1.0]], [[0.25, 0.75]], [[1.0, 0.0]], [[0.0, 1.0]], [[1.0, 0.0]], [[0.9983844911147012, 0.0016155088852988692]], [[1.0, 0.0]], [[0.9824561403508771, 0.017543859649122806]], [[0.6666666666666666, 0.3333333333333333]], [[1.0, 0.0]]], "n_node_samples": [1164, 774, 132, 116, 16, 5, 3, 2, 11, 642, 47, 595, 542, 540, 6, 534, 2, 53, 46, 41, 2, 39, 5, 2, 3, 7, 390, 359, 31, 2, 29], "impurity": [0.499994852583717, 0.38072819122799284, 0.00930212245610973, 0.0, 0.07679999999999998, 0.2777777777777778, 0.0, 0.4444444444444444, 0.0, 0.18507135690167742, 0.0, 0.060546875, 0.024939332306057826, 0.01601726245827728, 0.0, 0.0, 0.0, 0.3358161848251483, 0.1022644265887509, 0.058769513314967825, 0.0, 0.0, 0.375, 0.0, 0.0, 0.0, 0.003225798032680749, 0.0, 0.03447214527546938, 0.4444444444444444, 0.0]}, {"children_left": [1, 2, 3, -1, 5, 6, -1, 8, 9, -1, -1, 12, 13, -1, -1, -1, -1, -1, 19, 20, -1, 22, 23, 24, 25, -1, -1, -1, 29, -1, -1, -1, 33, -1, 35, -1, 37, 38, 39, 40, 41, -1, -1, -1, 45, -1, -1, -1, 49, 50, -1, -1, -1], "children_right": [18, 17, 4, -1, 16, 7, -1, 11, 10, -1, -1, 15, 14, -1, -1, -1, -1, -1, 32, 21, -1, 31, 28, 27, 26, -1, -1, -1, 30, -1, -1, -1, 34, -1, 36, -1, 48, 47, 44, 43, 42, -1, -1, -1, 46, -1, -1, -1, 52, 51, -1, -1, -1], "feature": [1, 6, 10, -2, 4, 9, -2, 0, 2, -2, -2, 5, 2, -2, -2, -2, -2, -2, 10, 10, -2, 0, 2, 5, 11, -2, -2, -2, 8, -2, -2, -2, 2, -2, 3, -2, 3, 2, 0, 4, 2, -2, -2, -2, 8, -2, -2, -2, 8, 6, -2, -2, -2], "threshold": [0.5, 3.7937556505203247, 6.5, -2.0, 5.782819509506226, 6.5, -2.0, 16.5, 4.7506725788116455, -2.0, -2.0, 2.575015664100647, 4.732818961143494, -2.0, -2.0, -2.0, -2.0, -2.0, 8.5, 6.5, -2.0, 14.5, 6.102165222167969, 2.4188376665115356, 1.5, -2.0, -2.0, -2.0, 0.5, -2.0, -2.0, -2.0, 5.3500001430511475, -2.0, 0.5, -2.0, 1.5, 7.837323188781738, 16.5, 5.97895359992981, 5.438723802566528, -2.0, -2.0, -2.0, 1.5, -2.0, -2.0, -2.0, 1.5, 3.0549999475479126, -2.0, -2.0, -2.0], "value": [[[0.5106951871657754, 0.4893048128342246]], [[0.3520368946963874, 0.6479631053036126]], [[0.3239775461106656, 0.6760224538893344]], [[1.0, 0.0]], [[0.16699604743083005, 0.8330039525691699]], [[0.05810055865921788, 0.9418994413407821]], [[1.0, 0.0]], [[0.01288056206088993, 0.9871194379391101]], [[0.005025125628140704, 0.9949748743718593]], [[1.0, 0.0]], [[0.0, 1.0]], [[0.0311284046692607, 0.9688715953307393]], [[0.01593625498007968, 0.9840637450199203]], [[1.0, 0.0]], [[0.0, 1.0]], [[0.6666666666666666, 0.3333333333333333]], [[1.0, 0.0]], [[1.0, 0.0]], [[0.8734622144112478, 0.1265377855887522]], [[0.9515011547344111, 0.04849884526558892]], [[1.0, 0.0]], [[0.8306451612903226, 0.1693548387096774]], [[0.5, 0.5]], [[0.8636363636363636, 0.13636363636363635]], [[0.6666666666666666, 0.3333333333333333]], [[1.0, 0.0]], [[0.4, 0.6]], [[1.0, 0.0]], [[0.1, 0.9]], [[0.0, 1.0]], [[1.0, 0.0]], [[1.0, 0.0]], [[0.625, 0.375]], [[1.0, 0.0]], [[0.3625, 0.6375]], [[1.0, 0.0]], [[0.2916666666666667, 0.7083333333333334]], [[0.19672131147540983, 0.8032786885245902]], [[0.15517241379310345, 0.8448275862068966]], [[0.24242424242424243, 0.7575757575757576]], [[0.038461538461538464, 0.9615384615384616]], [[0.5, 0.5]], [[0.0, 1.0]], [[1.0, 0.0]], [[0.04, 0.96]], [[0.0, 1.0]], [[0.5, 0.5]], [[1.0, 0.0]], [[0.8181818181818182, 0.18181818181818182]], [[0.7777777777777778, 0.2222222222222222]], [[1.0, 0.0]], [[0.5, 0.5]], [[1.0, 0.0]]], "n_node_samples": [1173, 821, 785, 154, 631, 560, 26, 534, 368, 2, 366, 166, 164, 3, 161, 2, 71, 36, 352, 255, 184, 71, 24, 11, 5, 2, 3, 6, 13, 11, 2, 47, 97, 37, 60, 6, 54, 45, 43, 23, 19, 2, 17, 4, 20, 18, 2, 2, 9, 7, 4, 3, 2], "impurity": [0.49977122594297807, 0.4562138389378241, 0.4380321914535543, 0.0, 0.27821673514662004, 0.10944976748540935, 0.0, 0.025429306363770943, 0.0099997474811242, 0.0, 0.0, 0.06031885418401495, 0.031364581514579104, 0.0, 0.0, 0.4444444444444444, 0.0, 0.0, 0.2210519488140944, 0.09229341454698681, 0.0, 0.28134755463059313, 0.5, 0.23553719008264462, 0.4444444444444444, 0.0, 0.48, 0.0, 0.18000000000000005, 0.0, 0.0, 0.0, 0.46875, 0.0, 0.4621875, 0.0, 0.4131944444444444, 0.31604407417360925, 0.2621878715814506, 0.3673094582185491, 0.07396449704142016, 0.5, 0.0, 0.0, 0.07679999999999998, 0.0, 0.5, 0.0, 0.2975206611570248, 0.345679012345679, 0.0, 0.5, 0.0]}, {"children_left": [1, 2, 3, 4, 5, -1, 7, 8, -1, 10, 11, 12, -1, -1, 15, -1, -1, -1, 19, 20, -1, -1, 23, 24, -1, -1, -1, -1, -1, 30, 31, -1, -1, -1, 35, -1, 37, -1, 39, 40, 41, 42, 43, -1, -1, -1, 47, -1, 49, -1, -1, -1, 53, -1, 55, -1, -1], "children_right": [34, 29, 28, 27, 6, -1, 18, 9, -1, 17, 14, 13, -1, -1, 16, -1, -1, -1, 22, 21, -1, -1, 26, 25, -1, -1, -1, -1, -1, 33, 32, -1, -1, -1, 36, -1, 38, -1, 52, 51, 46, 45, 44, -1, -1, -1, 48, -1, 50, -1, -1, -1, 54, -1, 56, -1, -1], "feature": [1, 7, 4, 6, 9, -2, 9, 2, -2, 4, 3, 4, -2, -2, 11, -2, -2, -2, 4, 3, -2, -2, 8, 2, -2, -2, -2, -2, -2, 11, 7, -2, -2, -2, 9, -2, 6, -2, 8, 6, 4, 3, 2, -2, -2, -2, 10, -2, 5, -2, -2, -2, 2, -2, 4, -2, -2], "threshold": [0.5, 1.7994558811187744, 5.793978691101074, 3.8037556409835815, 6.5, -2.0, 8.5, 4.55067253112793, -2.0, 4.600559234619141, 1.5, 4.498380422592163, -2.0, -2.0, 6.5, -2.0, -2.0, -2.0, 4.894088268280029, 1.5, -2.0, -2.0, 0.5, 4.873238563537598, -2.0, -2.0, -2.0, -2.0, -2.0, 1.5, 1.8231346607208252, -2.0, -2.0, -2.0, 6.5, -2.0, 2.40500009059906, -2.0, 1.5, 3.6600000858306885, 5.178953409194946, 1.5, 5.312627792358398, -2.0, -2.0, -2.0, 8.5, -2.0, 0.7999999821186066, -2.0, -2.0, -2.0, 5.75, -2.0, 5.5, -2.0, -2.0], "value": [[[0.506951871657754, 0.493048128342246]], [[0.3602391629297459, 0.6397608370702541]], [[0.33174603174603173, 0.6682539682539682]], [[0.1390593047034765, 0.8609406952965235]], [[0.11832460732984293, 0.881675392670157]], [[1.0, 0.0]], [[0.035509736540664374, 0.9644902634593356]], [[0.023508137432188065, 0.976491862567812]], [[1.0, 0.0]], [[0.0055248618784530384, 0.994475138121547]], [[0.0234375, 0.9765625]], [[0.009615384615384616, 0.9903846153846154]], [[0.0, 1.0]], [[0.05263157894736842, 0.9473684210526315]], [[0.08333333333333333, 0.9166666666666666]], [[0.6666666666666666, 0.3333333333333333]], [[0.0, 1.0]], [[0.0, 1.0]], [[0.05625, 0.94375]], [[0.012048192771084338, 0.9879518072289156]], [[0.0, 1.0]], [[0.42857142857142855, 0.5714285714285714]], [[0.2112676056338028, 0.7887323943661971]], [[0.1111111111111111, 0.8888888888888888]], [[1.0, 0.0]], [[0.0, 1.0]], [[1.0, 0.0]], [[1.0, 0.0]], [[1.0, 0.0]], [[0.8205128205128205, 0.1794871794871795]], [[0.2222222222222222, 0.7777777777777778]], [[1.0, 0.0]], [[0.0, 1.0]], [[1.0, 0.0]], [[0.8759398496240601, 0.12406015037593984]], [[1.0, 0.0]], [[0.7411764705882353, 0.25882352941176473]], [[1.0, 0.0]], [[0.6901408450704225, 0.30985915492957744]], [[0.5816993464052288, 0.41830065359477125]], [[0.5038759689922481, 0.49612403100775193]], [[0.1, 0.9]], [[0.06153846153846154, 0.9384615384615385]], [[1.0, 0.0]], [[0.0, 1.0]], [[0.6, 0.4]], [[0.9830508474576272, 0.01694915254237288]], [[1.0, 0.0]], [[0.9333333333333333, 0.06666666666666667]], [[0.5, 0.5]], [[1.0, 0.0]], [[1.0, 0.0]], [[0.9666666666666667, 0.03333333333333333]], [[1.0, 0.0]], [[0.9, 0.1]], [[0.3333333333333333, 0.6666666666666666]], [[1.0, 0.0]]], "n_node_samples": [1184, 828, 777, 595, 583, 51, 532, 342, 7, 335, 81, 70, 57, 13, 11, 2, 9, 254, 190, 147, 143, 4, 43, 39, 3, 36, 4, 12, 182, 51, 11, 2, 9, 40, 356, 191, 165, 28, 137, 101, 89, 50, 46, 4, 42, 4, 39, 30, 9, 2, 7, 12, 36, 25, 11, 2, 9], "impurity": [0.4999033429609082, 0.46093381684284374, 0.4433812043335853, 0.2394436289577243, 0.2086477892601628, 0.0, 0.06849759030295399, 0.04591100981331486, 0.0, 0.010988675559354122, 0.0457763671875, 0.019045857988165715, 0.0, 0.09972299168975074, 0.1527777777777778, 0.4444444444444444, 0.0, 0.0, 0.10617187500000003, 0.023806067644070228, 0.0, 0.4897959183673469, 0.3332672088871256, 0.19753086419753085, 0.0, 0.0, 0.0, 0.0, 0.0, 0.294543063773833, 0.345679012345679, 0.0, 0.0, 0.0, 0.21733845892927806, 0.0, 0.3836678200692042, 0.0, 0.4276929180718112, 0.4866504335939169, 0.4999699537287423, 0.18000000000000005, 0.11550295857988169, 0.0, 0.0, 0.48, 0.03332375754093653, 0.0, 0.12444444444444447, 0.5, 0.0, 0.0, 0.06444444444444442, 0.0, 0.18000000000000005, 0.4444444444444444, 0.0]}, {"children_left": [1, 2, 3, 4, 5, 6, -1, 8, 9, -1, 11, 12, -1, -1, 15, -1, -1, 18, 19, -1, 21, -1, -1, 24, 25, -1, -1, -1, 29, 30, -1, -1, -1, 34, -1, -1, 37, -1, -1, 40, -1, 42, 43, 44, -1, -1, 47, 48, -1, 50, -1, -1, -1, 54, -1, -1, -1], "children_right": [56, 39, 36, 33, 28, 7, -1, 17, 10, -1, 14, 13, -1, -1, 16, -1, -1, 23, 20, -1, 22, -1, -1, 27, 26, -1, -1, -1, 32, 31, -1, -1, -1, 35, -1, -1, 38, -1, -1, 41, -1, 53, 46, 45, -1, -1, 52, 49, -1, 51, -1, -1, -1, 55, -1, -1, -1], "feature": [4, 1, 5, 6, 7, 10, -2, 10, 9, -2, 5, 7, -2, -2, 7, -2, -2, 5, 8, -2, 7, -2, -2, 7, 7, -2, -2, -2, 5, 9, -2, -2, -2, 2, -2, -2, 10, -2, -2, 9, -2, 4, 6, 0, -2, -2, 11, 10, -2, 2, -2, -2, -2, 5, -2, -2, -2], "threshold": [5.79243803024292, 0.5, 2.8827168941497803, 3.7597222328186035, 1.7994558811187744, 6.5, -2.0, 9.5, 6.0, -2.0, 0.7086872458457947, 0.8082735538482666, -2.0, -2.0, 0.6053819954395294, -2.0, -2.0, 1.8009666204452515, 0.5, -2.0, 0.6624382734298706, -2.0, -2.0, 0.8118277192115784, 0.6386852860450745, -2.0, -2.0, -2.0, 1.6206695437431335, 8.0, -2.0, -2.0, -2.0, 5.05067253112793, -2.0, -2.0, 8.5, -2.0, -2.0, 6.5, -2.0, 5.178953409194946, 2.3600000143051147, 17.5, -2.0, -2.0, 9.5, 6.5, -2.0, 4.799999952316284, -2.0, -2.0, -2.0, 0.6500000059604645, -2.0, -2.0, -2.0], "value": [[[0.5117647058823529, 0.48823529411764705]], [[0.25892857142857145, 0.7410714285714286]], [[0.13991769547325103, 0.8600823045267489]], [[0.1304801670146138, 0.8695198329853863]], [[0.1178343949044586, 0.8821656050955414]], [[0.10231023102310231, 0.8976897689768977]], [[1.0, 0.0]], [[0.03546099290780142, 0.9645390070921985]], [[0.024390243902439025, 0.975609756097561]], [[1.0, 0.0]], [[0.003931847968545216, 0.9960681520314548]], [[0.015625, 0.984375]], [[0.041666666666666664, 0.9583333333333334]], [[0.0, 1.0]], [[0.002861230329041488, 0.9971387696709585]], [[0.008968609865470852, 0.9910313901345291]], [[0.0, 1.0]], [[0.16417910447761194, 0.835820895522388]], [[0.35, 0.65]], [[1.0, 0.0]], [[0.13333333333333333, 0.8666666666666667]], [[1.0, 0.0]], [[0.0, 1.0]], [[0.0851063829787234, 0.9148936170212766]], [[0.4, 0.6]], [[0.0, 1.0]], [[0.8, 0.2]], [[0.0, 1.0]], [[0.5454545454545454, 0.45454545454545453]], [[0.16666666666666666, 0.8333333333333334]], [[1.0, 0.0]], [[0.0, 1.0]], [[1.0, 0.0]], [[0.875, 0.125]], [[1.0, 0.0]], [[0.5, 0.5]], [[0.7857142857142857, 0.21428571428571427]], [[1.0, 0.0]], [[0.0, 1.0]], [[0.7038461538461539, 0.29615384615384616]], [[1.0, 0.0]], [[0.4338235294117647, 0.5661764705882353]], [[0.3090909090909091, 0.6909090909090909]], [[0.8333333333333334, 0.16666666666666666]], [[1.0, 0.0]], [[0.3333333333333333, 0.6666666666666666]], [[0.24489795918367346, 0.7551020408163265]], [[0.20430107526881722, 0.7956989247311828]], [[1.0, 0.0]], [[0.075, 0.925]], [[1.0, 0.0]], [[0.0, 1.0]], [[1.0, 0.0]], [[0.9615384615384616, 0.038461538461538464]], [[0.5, 0.5]], [[1.0, 0.0]], [[1.0, 0.0]]], "n_node_samples": [1165, 779, 613, 606, 595, 572, 40, 532, 488, 12, 476, 41, 15, 26, 435, 140, 295, 44, 12, 4, 8, 2, 6, 32, 5, 3, 2, 27, 23, 14, 3, 11, 9, 11, 7, 4, 7, 5, 2, 166, 77, 89, 71, 8, 6, 2, 63, 60, 11, 49, 4, 45, 3, 18, 2, 16, 386], "impurity": [0.4997231833910034, 0.38376913265306123, 0.24068146793341127, 0.22691018606090452, 0.20789890056391735, 0.18368569530220347, 0.0, 0.06840702177958857, 0.04759071980963714, 0.0, 0.00783277708019492, 0.03076171875, 0.07986111111111116, 0.0, 0.005706087380091374, 0.01777634780510362, 0.0, 0.2744486522610826, 0.45499999999999996, 0.0, 0.23111111111111116, 0.0, 0.0, 0.15572657311000448, 0.48, 0.0, 0.31999999999999995, 0.0, 0.49586776859504134, 0.2777777777777778, 0.0, 0.0, 0.0, 0.21875, 0.0, 0.5, 0.33673469387755106, 0.0, 0.0, 0.41689349112426033, 0.0, 0.49124134948096887, 0.42710743801652895, 0.2777777777777778, 0.0, 0.4444444444444444, 0.3698458975426906, 0.3251242918256446, 0.0, 0.13875000000000004, 0.0, 0.0, 0.0, 0.07396449704142016, 0.5, 0.0, 0.0]}, {"children_left": [1, 2, -1, 4, -1, 6, 7, -1, -1, -1, 11, -1, 13, 14, -1, -1, -1], "children_right": [10, 3, -1, 5, -1, 9, 8, -1, -1, -1, 12, -1, 16, 15, -1, -1, -1], "feature": [2, 9, -2, 2, -2, 3, 4, -2, -2, -2, 9, -2, 4, 10, -2, -2, -2], "threshold": [5.203948974609375, 7.5, -2.0, 5.100672483444214, -2.0, 0.5, 4.211787700653076, -2.0, -2.0, -2.0, 6.5, -2.0, 5.8500001430511475, 6.5, -2.0, -2.0, -2.0], "value": [[[0.5192513368983958, 0.4807486631016043]], [[0.9919484702093397, 0.008051529790660225]], [[1.0, 0.0]], [[0.9671052631578947, 0.03289473684210526]], [[1.0, 0.0]], [[0.5, 0.5]], [[0.16666666666666666, 0.8333333333333334]], [[0.5, 0.5]], [[0.0, 1.0]], [[1.0, 0.0]], [[0.28422738190552443, 0.7157726180944756]], [[1.0, 0.0]], [[0.1558073654390935, 0.8441926345609065]], [[0.032467532467532464, 0.9675324675324676]], [[1.0, 0.0]], [[0.0, 1.0]], [[1.0, 0.0]]], "n_node_samples": [1194, 381, 284, 97, 89, 8, 5, 2, 3, 3, 813, 134, 679, 599, 18, 581, 80], "impurity": [0.49925877205524893, 0.015973405317380673, 0.0, 0.06362534626038785, 0.0, 0.5, 0.2777777777777778, 0.5, 0.0, 0.0, 0.4068843545613112, 0.0, 0.2630628606280445, 0.06282678360600435, 0.0, 0.0, 0.0]}, {"children_left": [1, 2, -1, 4, 5, 6, -1, 8, 9, 10, -1, 12, 13, -1, -1, -1, -1, -1, 19, -1, 21, 22, -1, 24, -1, -1, 27, -1, 29, -1, 31, -1, -1, -1, 35, 36, 37, 38, 39, -1, 41, 42, 43, -1, -1, 46, -1, -1, 49, -1, 51, -1, -1, -1, -1, 56, -1, 58, -1, -1, 61, -1, 63, -1, 65, -1, -1], "children_right": [34, 3, -1, 33, 18, 7, -1, 17, 16, 11, -1, 15, 14, -1, -1, -1, -1, -1, 20, -1, 26, 23, -1, 25, -1, -1, 28, -1, 30, -1, 32, -1, -1, -1, 60, 55, 54, 53, 40, -1, 48, 45, 44, -1, -1, 47, -1, -1, 50, -1, 52, -1, -1, -1, -1, 57, -1, 59, -1, -1, 62, -1, 64, -1, 66, -1, -1], "feature": [1, 2, -2, 6, 11, 9, -2, 5, 4, 6, -2, 2, 10, -2, -2, -2, -2, -2, 9, -2, 8, 10, -2, 4, -2, -2, 10, -2, 5, -2, 4, -2, -2, -2, 4, 3, 6, 8, 10, -2, 6, 11, 5, -2, -2, 5, -2, -2, 2, -2, 5, -2, -2, -2, -2, 10, -2, 11, -2, -2, 11, -2, 2, -2, 0, -2, -2], "threshold": [0.5, 5.100672483444214, -2.0, 3.7937556505203247, 4.5, 6.5, -2.0, 2.7936567068099976, 5.799418926239014, 2.2232773303985596, -2.0, 5.5291666984558105, 7.5, -2.0, -2.0, -2.0, -2.0, -2.0, 6.5, -2.0, 1.5, 6.5, -2.0, 6.25, -2.0, -2.0, 7.5, -2.0, 0.8701478838920593, -2.0, 5.549497127532959, -2.0, -2.0, -2.0, 5.177128791809082, 1.5, 3.6281319856643677, 1.5, 6.5, -2.0, 2.867914319038391, 5.0, 2.5046380758285522, -2.0, -2.0, 1.1368200182914734, -2.0, -2.0, 4.063722729682922, -2.0, 0.6199093163013458, -2.0, -2.0, -2.0, -2.0, 8.5, -2.0, 4.0, -2.0, -2.0, 9.5, -2.0, 5.200000047683716, -2.0, 15.5, -2.0, -2.0], "value": [[[0.5005347593582887, 0.4994652406417112]], [[0.3492786636294609, 0.6507213363705391]], [[1.0, 0.0]], [[0.174373795761079, 0.825626204238921]], [[0.1589793915603533, 0.8410206084396468]], [[0.10196078431372549, 0.8980392156862745]], [[1.0, 0.0]], [[0.04184100418410042, 0.9581589958158996]], [[0.0379746835443038, 0.9620253164556962]], [[0.006535947712418301, 0.9934640522875817]], [[0.25, 0.75]], [[0.004395604395604396, 0.9956043956043956]], [[0.05, 0.95]], [[0.13333333333333333, 0.8666666666666667]], [[0.0, 1.0]], [[0.0, 1.0]], [[1.0, 0.0]], [[0.5, 0.5]], [[0.21611001964636542, 0.7838899803536346]], [[1.0, 0.0]], [[0.08904109589041095, 0.910958904109589]], [[0.03735632183908046, 0.9626436781609196]], [[1.0, 0.0]], [[0.011799410029498525, 0.9882005899705014]], [[0.0, 1.0]], [[1.0, 0.0]], [[0.28888888888888886, 0.7111111111111111]], [[1.0, 0.0]], [[0.08571428571428572, 0.9142857142857143]], [[1.0, 0.0]], [[0.030303030303030304, 0.9696969696969697]], [[0.0, 1.0]], [[0.6666666666666666, 0.3333333333333333]], [[1.0, 0.0]], [[0.8607594936708861, 0.13924050632911392]], [[0.6153846153846154, 0.38461538461538464]], [[0.535483870967742, 0.4645161290322581]], [[0.4744525547445255, 0.5255474452554745]], [[0.35135135135135137, 0.6486486486486487]], [[1.0, 0.0]], [[0.19101123595505617, 0.8089887640449438]], [[0.5454545454545454, 0.45454545454545453]], [[0.1111111111111111, 0.8888888888888888]], [[0.5, 0.5]], [[0.0, 1.0]], [[0.8461538461538461, 0.15384615384615385]], [[0.3333333333333333, 0.6666666666666666]], [[1.0, 0.0]], [[0.07462686567164178, 0.9253731343283582]], [[1.0, 0.0]], [[0.015873015873015872, 0.9841269841269841]], [[0.5, 0.5]], [[0.0, 1.0]], [[1.0, 0.0]], [[1.0, 0.0]], [[0.925, 0.075]], [[1.0, 0.0]], [[0.7272727272727273, 0.2727272727272727]], [[0.25, 0.75]], [[1.0, 0.0]], [[0.994413407821229, 0.00558659217877095]], [[1.0, 0.0]], [[0.9459459459459459, 0.05405405405405406]], [[1.0, 0.0]], [[0.8333333333333334, 0.16666666666666666]], [[0.6, 0.4]], [[1.0, 0.0]]], "n_node_samples": [1214, 847, 179, 668, 656, 331, 21, 310, 308, 296, 2, 294, 26, 10, 16, 268, 12, 2, 325, 47, 278, 225, 5, 220, 216, 4, 53, 12, 41, 2, 39, 37, 2, 12, 367, 129, 104, 91, 75, 14, 61, 13, 6, 2, 4, 7, 2, 5, 48, 2, 46, 2, 44, 16, 13, 25, 18, 7, 3, 4, 238, 214, 24, 17, 7, 4, 3], "impurity": [0.4999994280648574, 0.45456615752535756, 0.0, 0.287935150225905, 0.2674098892389063, 0.1831295655517109, 0.0, 0.08018066910593302, 0.07306521390802756, 0.01298645819983768, 0.375, 0.008752566115203475, 0.09499999999999997, 0.23111111111111116, 0.0, 0.0, 0.0, 0.5, 0.338812958109626, 0.0, 0.1622255582660912, 0.07192165411547102, 0.0, 0.023320367904908545, 0.0, 0.0, 0.41086419753086423, 0.0, 0.156734693877551, 0.0, 0.058769513314967825, 0.0, 0.4444444444444444, 0.0, 0.2397051754526518, 0.47337278106508873, 0.4974817898022893, 0.49869465608183705, 0.4558071585098612, 0.0, 0.3090518873879561, 0.49586776859504134, 0.19753086419753085, 0.5, 0.0, 0.2603550295857988, 0.4444444444444444, 0.0, 0.1381153931833371, 0.0, 0.031242126480221732, 0.5, 0.0, 0.0, 0.0, 0.13875000000000004, 0.0, 0.39669421487603307, 0.375, 0.0, 0.011110764333198131, 0.0, 0.1022644265887509, 0.0, 0.2777777777777778, 0.48, 0.0]}, {"children_left": [1, 2, -1, 4, 5, -1, -1, 8, -1, 10, 11, -1, 13, 14, -1, 16, -1, -1, 19, -1, 21, -1, -1, 24, -1, -1, -1], "children_right": [26, 3, -1, 7, 6, -1, -1, 9, -1, 23, 12, -1, 18, 15, -1, 17, -1, -1, 20, -1, 22, -1, -1, 25, -1, -1, -1], "feature": [4, 9, -2, 4, 10, -2, -2, 10, -2, 1, 11, -2, 0, 5, -2, 9, -2, -2, 6, -2, 5, -2, -2, 2, -2, -2, -2], "threshold": [5.793978691101074, 6.5, -2.0, 4.1026904582977295, 7.5, -2.0, -2.0, 6.5, -2.0, 0.5, 5.5, -2.0, 16.5, 2.3861241340637207, -2.0, 7.5, -2.0, -2.0, 2.193801164627075, -2.0, 2.1468368768692017, -2.0, -2.0, 5.0, -2.0, -2.0, -2.0], "value": [[[0.5037433155080214, 0.49625668449197863]], [[0.2617342879872713, 0.7382657120127287]], [[1.0, 0.0]], [[0.10077519379844961, 0.8992248062015504]], [[0.7058823529411765, 0.29411764705882354]], [[1.0, 0.0]], [[0.16666666666666666, 0.8333333333333334]], [[0.09064039408866995, 0.90935960591133]], [[1.0, 0.0]], [[0.024312896405919663, 0.9756871035940803]], [[0.00702576112412178, 0.9929742388758782]], [[0.0, 1.0]], [[0.018867924528301886, 0.9811320754716981]], [[0.0036101083032490976, 0.9963898916967509]], [[0.0, 1.0]], [[0.06666666666666667, 0.9333333333333333]], [[0.0, 1.0]], [[0.3333333333333333, 0.6666666666666666]], [[0.12195121951219512, 0.8780487804878049]], [[1.0, 0.0]], [[0.07692307692307693, 0.9230769230769231]], [[0.0, 1.0]], [[0.5, 0.5]], [[0.18478260869565216, 0.8152173913043478]], [[1.0, 0.0]], [[0.0, 1.0]], [[1.0, 0.0]]], "n_node_samples": [1189, 796, 142, 654, 11, 8, 3, 643, 45, 598, 539, 337, 202, 174, 166, 8, 6, 2, 28, 2, 26, 22, 4, 59, 12, 47, 393], "impurity": [0.49997197517801484, 0.38645890095813484, 0.0, 0.1812391082266691, 0.4152249134948097, 0.0, 0.2777777777777778, 0.1648494260962411, 0.0, 0.04744355894854935, 0.013952799609497135, 0.0, 0.03702385190459234, 0.007194150842575797, 0.0, 0.12444444444444447, 0.0, 0.4444444444444444, 0.21415823914336707, 0.0, 0.14201183431952658, 0.0, 0.5, 0.3012759924385633, 0.0, 0.0, 0.0]}, {"children_left": [1, 2, -1, 4, -1, 6, 7, 8, 9, 10, -1, -1, 13, -1, -1, -1, 17, -1, 19, -1, 21, -1, 23, 24, -1, -1, -1, 28, 29, 30, -1, -1, 33, 34, -1, -1, 37, 38, -1, 40, -1, -1, -1, -1, 45, 46, -1, 48, 49, 50, -1, -1, 53, 54, -1, 56, 57, -1, -1, -1, 61, -1, 63, 64, -1, -1, -1, -1, 69, -1, 71, -1, 73, -1, 75, -1, -1], "children_right": [44, 3, -1, 5, -1, 27, 16, 15, 12, 11, -1, -1, 14, -1, -1, -1, 18, -1, 20, -1, 22, -1, 26, 25, -1, -1, -1, 43, 32, 31, -1, -1, 36, 35, -1, -1, 42, 39, -1, 41, -1, -1, -1, -1, 68, 47, -1, 67, 52, 51, -1, -1, 60, 55, -1, 59, 58, -1, -1, -1, 62, -1, 66, 65, -1, -1, -1, -1, 70, -1, 72, -1, 74, -1, 76, -1, -1], "feature": [1, 9, -2, 2, -2, 8, 8, 5, 6, 4, -2, -2, 11, -2, -2, -2, 2, -2, 5, -2, 6, -2, 7, 11, -2, -2, -2, 9, 5, 4, -2, -2, 11, 4, -2, -2, 5, 2, -2, 2, -2, -2, -2, -2, 3, 9, -2, 4, 6, 2, -2, -2, 3, 5, -2, 8, 9, -2, -2, -2, 2, -2, 4, 10, -2, -2, -2, -2, 2, -2, 5, -2, 7, -2, 2, -2, -2], "threshold": [0.5, 6.5, -2.0, 5.05067253112793, -2.0, 1.5, 0.5, 2.638548493385315, 3.7166720628738403, 6.6000001430511475, -2.0, -2.0, 4.5, -2.0, -2.0, -2.0, 5.52164363861084, -2.0, 0.6124722361564636, -2.0, 2.209411382675171, -2.0, 1.7949093580245972, 5.5, -2.0, -2.0, -2.0, 8.5, 1.114536702632904, 4.682723522186279, -2.0, -2.0, 6.5, 5.69010853767395, -2.0, -2.0, 1.7247005701065063, 6.328379154205322, -2.0, 6.796045541763306, -2.0, -2.0, -2.0, -2.0, 1.5, 6.5, -2.0, 5.177128791809082, 2.40500009059906, 5.950000047683716, -2.0, -2.0, 0.5, 1.854119062423706, -2.0, 1.5, 9.5, -2.0, -2.0, -2.0, 3.349999964237213, -2.0, 4.707777261734009, 6.5, -2.0, -2.0, -2.0, -2.0, 5.3500001430511475, -2.0, 0.7999999821186066, -2.0, 1.6500000357627869, -2.0, 6.75, -2.0, -2.0], "value": [[[0.5032085561497326, 0.49679144385026736]], [[0.3628048780487805, 0.6371951219512195]], [[1.0, 0.0]], [[0.16483516483516483, 0.8351648351648352]], [[1.0, 0.0]], [[0.06904231625835189, 0.9309576837416481]], [[0.04894179894179894, 0.951058201058201]], [[0.023965141612200435, 0.9760348583877996]], [[0.013215859030837005, 0.986784140969163]], [[0.008928571428571428, 0.9910714285714286]], [[0.0, 1.0]], [[1.0, 0.0]], [[0.3333333333333333, 0.6666666666666666]], [[0.3333333333333333, 0.6666666666666666]], [[0.3333333333333333, 0.6666666666666666]], [[1.0, 0.0]], [[0.08754208754208755, 0.9124579124579124]], [[1.0, 0.0]], [[0.06551724137931035, 0.9344827586206896]], [[0.5, 0.5]], [[0.05319148936170213, 0.9468085106382979]], [[1.0, 0.0]], [[0.043010752688172046, 0.956989247311828]], [[0.036101083032490974, 0.9638989169675091]], [[0.019762845849802372, 0.9802371541501976]], [[0.20833333333333334, 0.7916666666666666]], [[1.0, 0.0]], [[0.176056338028169, 0.823943661971831]], [[0.064, 0.936]], [[0.7142857142857143, 0.2857142857142857]], [[0.0, 1.0]], [[1.0, 0.0]], [[0.025423728813559324, 0.9745762711864406]], [[0.010752688172043012, 0.989247311827957]], [[0.0, 1.0]], [[0.3333333333333333, 0.6666666666666666]], [[0.08, 0.92]], [[0.14285714285714285, 0.8571428571428571]], [[0.5, 0.5]], [[0.08333333333333333, 0.9166666666666666]], [[0.0, 1.0]], [[0.5, 0.5]], [[0.0, 1.0]], [[1.0, 0.0]], [[0.8333333333333334, 0.16666666666666666]], [[0.779126213592233, 0.220873786407767]], [[1.0, 0.0]], [[0.5919282511210763, 0.4080717488789238]], [[0.24166666666666667, 0.7583333333333333]], [[0.875, 0.125]], [[1.0, 0.0]], [[0.5, 0.5]], [[0.19642857142857142, 0.8035714285714286]], [[0.5384615384615384, 0.46153846153846156]], [[1.0, 0.0]], [[0.29411764705882354, 0.7058823529411765]], [[0.07692307692307693, 0.9230769230769231]], [[0.0, 1.0]], [[0.3333333333333333, 0.6666666666666666]], [[1.0, 0.0]], [[0.09302325581395349, 0.9069767441860465]], [[1.0, 0.0]], [[0.060240963855421686, 0.9397590361445783]], [[0.10638297872340426, 0.8936170212765957]], [[1.0, 0.0]], [[0.0, 1.0]], [[0.0, 1.0]], [[1.0, 0.0]], [[0.9863013698630136, 0.0136986301369863]], [[1.0, 0.0]], [[0.9545454545454546, 0.045454545454545456]], [[0.6666666666666666, 0.3333333333333333]], [[0.975609756097561, 0.024390243902439025]], [[1.0, 0.0]], [[0.8888888888888888, 0.1111111111111111]], [[1.0, 0.0]], [[0.75, 0.25]]], "n_node_samples": [1178, 819, 194, 625, 63, 562, 481, 302, 299, 294, 291, 3, 5, 2, 3, 3, 179, 3, 176, 4, 172, 2, 170, 168, 152, 16, 2, 81, 72, 6, 2, 4, 66, 51, 49, 2, 15, 10, 2, 8, 6, 2, 5, 9, 359, 263, 126, 137, 73, 5, 3, 2, 68, 17, 6, 11, 9, 7, 2, 2, 51, 2, 49, 29, 3, 26, 20, 64, 96, 64, 32, 3, 29, 22, 7, 3, 4], "impurity": [0.49997941033486804, 0.46235499702558003, 0.0, 0.2753290665378577, 0.0, 0.12855094964806724, 0.09309299851627895, 0.046781627199415254, 0.02608240020182806, 0.017697704081632626, 0.0, 0.0, 0.4444444444444444, 0.4444444444444444, 0.4444444444444444, 0.0, 0.1597569409017221, 0.0, 0.12244946492271103, 0.5, 0.10072430964237211, 0.0, 0.08232165568273786, 0.06959558967274437, 0.03874455154743861, 0.32986111111111116, 0.0, 0.29012100773656024, 0.11980800000000003, 0.40816326530612246, 0.0, 0.0, 0.04955472565354779, 0.021274135738235667, 0.0, 0.4444444444444444, 0.1472, 0.24489795918367352, 0.5, 0.1527777777777778, 0.0, 0.5, 0.0, 0.0, 0.2777777777777778, 0.3441771137713262, 0.0, 0.4830983932916407, 0.3665277777777778, 0.21875, 0.0, 0.5, 0.31568877551020413, 0.4970414201183432, 0.0, 0.4152249134948097, 0.14201183431952658, 0.0, 0.4444444444444444, 0.0, 0.16873985938345049, 0.0, 0.11322398025838298, 0.19013128112267996, 0.0, 0.0, 0.0, 0.0, 0.027021955338712655, 0.0, 0.08677685950413228, 0.4444444444444444, 0.04759071980963714, 0.0, 0.19753086419753085, 0.0, 0.375]}, {"children_left": [1, 2, 3, 4, 5, -1, 7, -1, -1, -1, 11, -1, 13, 14, 15, -1, 17, 18, 19, -1, -1, -1, 23, -1, 25, -1, -1, -1, 29, -1, -1, 32, 33, -1, 35, -1, -1, 38, 39, 40, -1, 42, -1, -1, -1, 46, 47, 48, 49, -1, -1, 52, 53, -1, -1, -1, 57, -1, -1, -1, 61, -1, 63, -1, 65, 66, 67, 68, 69, -1, -1, -1, -1, 74, -1, -1, 77, 78, 79, -1, -1, -1, -1], "children_right": [60, 31, 10, 9, 6, -1, 8, -1, -1, -1, 12, -1, 28, 27, 16, -1, 22, 21, 20, -1, -1, -1, 24, -1, 26, -1, -1, -1, 30, -1, -1, 37, 34, -1, 36, -1, -1, 45, 44, 41, -1, 43, -1, -1, -1, 59, 56, 51, 50, -1, -1, 55, 54, -1, -1, -1, 58, -1, -1, -1, 62, -1, 64, -1, 76, 73, 72, 71, 70, -1, -1, -1, -1, 75, -1, -1, 82, 81, 80, -1, -1, -1, -1], "feature": [8, 1, 2, 3, 6, -2, 5, -2, -2, -2, 9, -2, 7, 5, 10, -2, 3, 11, 11, -2, -2, -2, 0, -2, 4, -2, -2, -2, 4, -2, -2, 2, 11, -2, 2, -2, -2, 5, 2, 3, -2, 4, -2, -2, -2, 4, 7, 11, 2, -2, -2, 9, 7, -2, -2, -2, 2, -2, -2, -2, 10, -2, 2, -2, 2, 11, 1, 9, 0, -2, -2, -2, -2, 6, -2, -2, 11, 4, 9, -2, -2, -2, -2], "threshold": [1.5, 0.5, 5.228894472122192, 0.5, 3.6940906047821045, -2.0, 2.100000023841858, -2.0, -2.0, -2.0, 6.5, -2.0, 1.7951210737228394, 2.753841519355774, 6.5, -2.0, 1.5, 7.5, 5.5, -2.0, -2.0, -2.0, 13.5, -2.0, 6.248150110244751, -2.0, -2.0, -2.0, 5.440974235534668, -2.0, -2.0, 5.426095962524414, 9.5, -2.0, 4.25, -2.0, -2.0, 0.8981583416461945, 7.574102163314819, 0.5, -2.0, 6.456506729125977, -2.0, -2.0, -2.0, 4.997105836868286, 1.4010825753211975, 7.0, 5.849999904632568, -2.0, -2.0, 8.5, 0.5979002714157104, -2.0, -2.0, -2.0, 6.252165079116821, -2.0, -2.0, -2.0, 6.5, -2.0, 5.100672483444214, -2.0, 6.881202936172485, 8.5, 0.5, 8.5, 13.5, -2.0, -2.0, -2.0, -2.0, 2.575000047683716, -2.0, -2.0, 7.5, 5.562056541442871, 6.0, -2.0, -2.0, -2.0, -2.0], "value": [[[0.4994652406417112, 0.5005347593582887]], [[0.42472375690607733, 0.5752762430939227]], [[0.27724665391969405, 0.722753346080306]], [[0.9948186528497409, 0.0051813471502590676]], [[0.9824561403508771, 0.017543859649122806]], [[1.0, 0.0]], [[0.8571428571428571, 0.14285714285714285]], [[1.0, 0.0]], [[0.6666666666666666, 0.3333333333333333]], [[1.0, 0.0]], [[0.11488862837045721, 0.8851113716295428]], [[1.0, 0.0]], [[0.05860349127182045, 0.9413965087281796]], [[0.05128205128205128, 0.9487179487179487]], [[0.04639175257731959, 0.9536082474226805]], [[1.0, 0.0]], [[0.022457067371202115, 0.9775429326287979]], [[0.013223140495867768, 0.9867768595041322]], [[0.020100502512562814, 0.9798994974874372]], [[0.013089005235602094, 0.9869109947643979]], [[0.1875, 0.8125]], [[0.0, 1.0]], [[0.05921052631578947, 0.9407894736842105]], [[0.42857142857142855, 0.5714285714285714]], [[0.041379310344827586, 0.9586206896551724]], [[0.0, 1.0]], [[1.0, 0.0]], [[1.0, 0.0]], [[0.3181818181818182, 0.6818181818181818]], [[0.0, 1.0]], [[1.0, 0.0]], [[0.8084577114427861, 0.19154228855721392]], [[0.9951690821256038, 0.004830917874396135]], [[1.0, 0.0]], [[0.95, 0.05]], [[1.0, 0.0]], [[0.5, 0.5]], [[0.6102564102564103, 0.38974358974358975]], [[0.21739130434782608, 0.782608695652174]], [[0.12195121951219512, 0.8780487804878049]], [[1.0, 0.0]], [[0.07692307692307693, 0.9230769230769231]], [[0.0, 1.0]], [[1.0, 0.0]], [[1.0, 0.0]], [[0.7315436241610739, 0.2684563758389262]], [[0.25925925925925924, 0.7407407407407407]], [[0.5, 0.5]], [[0.8333333333333334, 0.16666666666666666]], [[0.3333333333333333, 0.6666666666666666]], [[1.0, 0.0]], [[0.16666666666666666, 0.8333333333333334]], [[0.3333333333333333, 0.6666666666666666]], [[0.6666666666666666, 0.3333333333333333]], [[0.0, 1.0]], [[0.0, 1.0]], [[0.06666666666666667, 0.9333333333333333]], [[1.0, 0.0]], [[0.0, 1.0]], [[1.0, 0.0]], [[0.7559241706161137, 0.24407582938388625]], [[1.0, 0.0]], [[0.5598290598290598, 0.44017094017094016]], [[1.0, 0.0]], [[0.32679738562091504, 0.673202614379085]], [[0.17721518987341772, 0.8227848101265823]], [[0.1111111111111111, 0.8888888888888888]], [[0.04477611940298507, 0.9552238805970149]], [[0.015873015873015872, 0.9841269841269841]], [[0.5, 0.5]], [[0.0, 1.0]], [[0.5, 0.5]], [[1.0, 0.0]], [[0.8571428571428571, 0.14285714285714285]], [[0.6666666666666666, 0.3333333333333333]], [[1.0, 0.0]], [[0.4864864864864865, 0.5135135135135135]], [[0.3090909090909091, 0.6909090909090909]], [[0.07317073170731707, 0.926829268292683]], [[1.0, 0.0]], [[0.0, 1.0]], [[1.0, 0.0]], [[1.0, 0.0]]], "n_node_samples": [1193, 914, 659, 124, 39, 34, 5, 3, 2, 85, 535, 36, 499, 486, 483, 12, 471, 374, 245, 234, 11, 129, 97, 4, 93, 89, 4, 3, 13, 8, 5, 255, 127, 113, 14, 12, 2, 128, 28, 25, 2, 23, 21, 2, 3, 100, 43, 18, 9, 2, 7, 9, 5, 2, 3, 4, 25, 2, 23, 57, 279, 129, 150, 46, 104, 54, 49, 44, 42, 2, 40, 2, 5, 5, 2, 3, 50, 41, 29, 2, 27, 12, 9], "impurity": [0.4999994280648574, 0.48866697445132934, 0.4007618936200549, 0.010309001583935107, 0.03447214527546938, 0.0, 0.24489795918367352, 0.0, 0.4444444444444444, 0.0, 0.20337846288322436, 0.0, 0.11033824416514826, 0.09730440499671267, 0.08847911574024869, 0.0, 0.04390549499257479, 0.026096578102588586, 0.03939294462261056, 0.025835366355088984, 0.3046875, 0.0, 0.11140927977839332, 0.4897959183673469, 0.07933412604042811, 0.0, 0.0, 0.0, 0.43388429752066116, 0.0, 0.0, 0.3097076805029578, 0.009615160213773954, 0.0, 0.09499999999999997, 0.0, 0.5, 0.47568704799474026, 0.3402646502835539, 0.21415823914336707, 0.0, 0.14201183431952658, 0.0, 0.0, 0.0, 0.3927751002207108, 0.3840877914951989, 0.5, 0.2777777777777778, 0.4444444444444444, 0.0, 0.2777777777777778, 0.4444444444444444, 0.4444444444444444, 0.0, 0.0, 0.12444444444444447, 0.0, 0.0, 0.0, 0.3690056377889086, 0.0, 0.4928409671999415, 0.0, 0.44000170874449995, 0.2916199327030925, 0.19753086419753085, 0.08554243706838938, 0.031242126480221732, 0.5, 0.0, 0.5, 0.0, 0.24489795918367352, 0.4444444444444444, 0.0, 0.4996347699050402, 0.42710743801652895, 0.1356335514574658, 0.0, 0.0, 0.0, 0.0]}, {"children_left": [1, -1, 3, 4, -1, 6, -1, 8, 9, 10, 11, -1, -1, 14, 15, 16, -1, -1, 19, -1, -1, -1, 23, 24, -1, -1, 27, 28, -1, -1, -1, -1, 33, 34, -1, 36, 37, -1, -1, 40, -1, -1, 43, -1, 45, -1, -1], "children_right": [2, -1, 32, 5, -1, 7, -1, 31, 22, 13, 12, -1, -1, 21, 18, 17, -1, -1, 20, -1, -1, -1, 26, 25, -1, -1, 30, 29, -1, -1, -1, -1, 42, 35, -1, 39, 38, -1, -1, 41, -1, -1, 44, -1, 46, -1, -1], "feature": [9, -2, 8, 10, -2, 2, -2, 6, 1, 7, 4, -2, -2, 5, 9, 6, -2, -2, 3, -2, -2, -2, 9, 4, -2, -2, 7, 0, -2, -2, -2, -2, 3, 10, -2, 9, 4, -2, -2, 5, -2, -2, 2, -2, 2, -2, -2], "threshold": [6.5, -2.0, 1.5, 6.5, -2.0, 5.228894472122192, -2.0, 3.7997403144836426, 0.5, 0.1280461587011814, 6.199999809265137, -2.0, -2.0, 2.705299973487854, 8.5, 2.3616565465927124, -2.0, -2.0, 1.5, -2.0, -2.0, -2.0, 9.5, 6.028953552246094, -2.0, -2.0, 1.850000023841858, 15.5, -2.0, -2.0, -2.0, -2.0, 1.5, 6.5, -2.0, 8.5, 6.5, -2.0, -2.0, 2.450000047683716, -2.0, -2.0, 7.25, -2.0, 7.75, -2.0, -2.0], "value": [[[0.5053475935828877, 0.4946524064171123]], [[1.0, 0.0]], [[0.27336999214454044, 0.7266300078554595]], [[0.21998078770413065, 0.7800192122958693]], [[1.0, 0.0]], [[0.12026002166847237, 0.8797399783315276]], [[1.0, 0.0]], [[0.04806565064478312, 0.9519343493552169]], [[0.04245283018867924, 0.9575471698113207]], [[0.021248339973439574, 0.9787516600265604]], [[0.2, 0.8]], [[0.0, 1.0]], [[1.0, 0.0]], [[0.017615176151761516, 0.9823848238482384]], [[0.014965986394557823, 0.9850340136054422]], [[0.0045662100456621, 0.9954337899543378]], [[0.046511627906976744, 0.9534883720930233]], [[0.0, 1.0]], [[0.030303030303030304, 0.9696969696969697]], [[0.02491103202846975, 0.9750889679715302]], [[0.125, 0.875]], [[0.6666666666666666, 0.3333333333333333]], [[0.21052631578947367, 0.7894736842105263]], [[0.14285714285714285, 0.8571428571428571]], [[0.0, 1.0]], [[1.0, 0.0]], [[0.7272727272727273, 0.2727272727272727]], [[0.875, 0.125]], [[0.8, 0.2]], [[1.0, 0.0]], [[0.3333333333333333, 0.6666666666666666]], [[1.0, 0.0]], [[0.5129310344827587, 0.4870689655172414]], [[0.4256410256410256, 0.5743589743589743]], [[1.0, 0.0]], [[0.18840579710144928, 0.8115942028985508]], [[0.09836065573770492, 0.9016393442622951]], [[0.0, 1.0]], [[1.0, 0.0]], [[0.875, 0.125]], [[1.0, 0.0]], [[0.3333333333333333, 0.6666666666666666]], [[0.972972972972973, 0.02702702702702703]], [[1.0, 0.0]], [[0.875, 0.125]], [[0.75, 0.25]], [[1.0, 0.0]]], "n_node_samples": [1188, 379, 809, 663, 74, 589, 43, 546, 544, 481, 11, 9, 2, 470, 468, 281, 29, 252, 187, 177, 10, 2, 63, 55, 48, 7, 8, 6, 3, 3, 2, 2, 146, 127, 41, 86, 75, 70, 5, 11, 9, 2, 19, 13, 6, 3, 3], "impurity": [0.4999428064857445, 0.0, 0.3972776790788687, 0.34317848149040164, 0.0, 0.2115950977135419, 0.0, 0.09151068774575355, 0.08130117479530086, 0.041593696043625394, 0.31999999999999995, 0.0, 0.0, 0.034609763441807884, 0.029484011291591505, 0.009090719542962034, 0.08869659275283936, 0.0, 0.058769513314967825, 0.04858094502349264, 0.21875, 0.4444444444444444, 0.332409972299169, 0.24489795918367352, 0.0, 0.0, 0.39669421487603307, 0.21875, 0.31999999999999995, 0.0, 0.4444444444444444, 0.0, 0.49966557669441136, 0.48894148586456276, 0.0, 0.3058181054400336, 0.17737167428110723, 0.0, 0.0, 0.21875, 0.0, 0.4444444444444444, 0.05259313367421481, 0.0, 0.21875, 0.375, 0.0]}, {"children_left": [1, -1, 3, 4, 5, 6, 7, 8, 9, -1, 11, 12, -1, -1, -1, 16, 17, -1, -1, -1, 21, -1, 23, 24, -1, 26, -1, -1, -1, 30, -1, -1, -1, -1, 35, 36, 37, -1, 39, -1, -1, -1, 43, 44, -1, 46, -1, -1, 49, -1, -1], "children_right": [2, -1, 34, 33, 32, 29, 20, 15, 10, -1, 14, 13, -1, -1, -1, 19, 18, -1, -1, -1, 22, -1, 28, 25, -1, 27, -1, -1, -1, 31, -1, -1, -1, -1, 42, 41, 38, -1, 40, -1, -1, -1, 48, 45, -1, 47, -1, -1, 50, -1, -1], "feature": [10, -2, 1, 4, 5, 0, 10, 7, 9, -2, 10, 4, -2, -2, -2, 0, 9, -2, -2, -2, 6, -2, 11, 8, -2, 2, -2, -2, -2, 2, -2, -2, -2, -2, 2, 4, 2, -2, 9, -2, -2, -2, 10, 9, -2, 4, -2, -2, 7, -2, -2], "threshold": [6.5, -2.0, 0.5, 5.8500001430511475, 2.9982177019119263, 18.5, 9.5, 1.7951210737228394, 6.5, -2.0, 8.5, 4.899868965148926, -2.0, -2.0, -2.0, 13.5, 7.0, -2.0, -2.0, -2.0, 2.4468363523483276, -2.0, 7.5, 0.5, -2.0, 4.550000071525574, -2.0, -2.0, -2.0, 5.802696943283081, -2.0, -2.0, -2.0, -2.0, 5.412627935409546, 5.25, 4.849999904632568, -2.0, 6.5, -2.0, -2.0, -2.0, 9.5, 6.5, -2.0, 5.578953504562378, -2.0, -2.0, 1.449999988079071, -2.0, -2.0], "value": [[[0.5026737967914439, 0.49732620320855614]], [[1.0, 0.0]], [[0.2879019908116386, 0.7120980091883614]], [[0.18529130850047756, 0.8147086914995224]], [[0.07783783783783783, 0.9221621621621622]], [[0.07583965330444203, 0.9241603466955579]], [[0.0719910011248594, 0.9280089988751407]], [[0.05672009864364982, 0.9432799013563502]], [[0.03836317135549872, 0.9616368286445013]], [[1.0, 0.0]], [[0.005291005291005291, 0.9947089947089947]], [[0.009237875288683603, 0.9907621247113164]], [[0.0, 1.0]], [[0.018867924528301886, 0.9811320754716981]], [[0.0, 1.0]], [[0.5517241379310345, 0.4482758620689655]], [[0.1875, 0.8125]], [[1.0, 0.0]], [[0.0, 1.0]], [[1.0, 0.0]], [[0.23076923076923078, 0.7692307692307693]], [[1.0, 0.0]], [[0.09090909090909091, 0.9090909090909091]], [[0.0625, 0.9375]], [[0.5, 0.5]], [[0.03333333333333333, 0.9666666666666667]], [[1.0, 0.0]], [[0.0, 1.0]], [[1.0, 0.0]], [[0.17647058823529413, 0.8235294117647058]], [[1.0, 0.0]], [[0.0, 1.0]], [[1.0, 0.0]], [[1.0, 0.0]], [[0.7027027027027027, 0.2972972972972973]], [[0.9743589743589743, 0.02564102564102564]], [[0.9230769230769231, 0.07692307692307693]], [[1.0, 0.0]], [[0.6666666666666666, 0.3333333333333333]], [[1.0, 0.0]], [[0.0, 1.0]], [[1.0, 0.0]], [[0.4788732394366197, 0.5211267605633803]], [[0.4, 0.6]], [[1.0, 0.0]], [[0.2, 0.8]], [[0.0, 1.0]], [[1.0, 0.0]], [[0.9090909090909091, 0.09090909090909091]], [[1.0, 0.0]], [[0.5, 0.5]]], "n_node_samples": [1178, 360, 818, 651, 573, 571, 549, 501, 486, 17, 469, 277, 142, 135, 192, 15, 9, 2, 7, 6, 48, 7, 41, 39, 2, 37, 2, 35, 2, 22, 4, 18, 2, 78, 167, 77, 25, 20, 5, 3, 2, 52, 90, 75, 23, 52, 44, 8, 15, 12, 3], "impurity": [0.4999857016214361, 0.0, 0.4100288689966676, 0.30191687898931685, 0.1435582176771366, 0.14017600058220814, 0.13361659376379975, 0.10700585810700891, 0.0737828768780947, 0.0, 0.010526021108031691, 0.018305073897668667, 0.0, 0.03702385190459234, 0.0, 0.4946492271105827, 0.3046875, 0.0, 0.0, 0.0, 0.3550295857988166, 0.0, 0.1652892561983471, 0.1171875, 0.5, 0.06444444444444442, 0.0, 0.0, 0.0, 0.2906574394463668, 0.0, 0.0, 0.0, 0.0, 0.4178232286340394, 0.04996712689020377, 0.14201183431952658, 0.0, 0.4444444444444444, 0.0, 0.0, 0.0, 0.4991073199761952, 0.48, 0.0, 0.31999999999999995, 0.0, 0.0, 0.1652892561983471, 0.0, 0.5]}, {"children_left": [1, 2, 3, -1, 5, -1, 7, 8, 9, -1, 11, 12, -1, 14, -1, -1, 17, -1, -1, -1, -1, 22, 23, 24, 25, -1, 27, 28, -1, -1, 31, 32, -1, 34, -1, -1, -1, -1, -1, 40, -1, 42, -1, -1, 45, 46, 47, -1, -1, -1, 51, -1, 53, -1, -1], "children_right": [44, 21, 4, -1, 6, -1, 20, 19, 10, -1, 16, 13, -1, 15, -1, -1, 18, -1, -1, -1, -1, 39, 38, 37, 26, -1, 30, 29, -1, -1, 36, 33, -1, 35, -1, -1, -1, -1, -1, 41, -1, 43, -1, -1, 50, 49, 48, -1, -1, -1, 52, -1, 54, -1, -1], "feature": [7, 1, 2, -2, 7, -2, 6, 4, 9, -2, 2, 8, -2, 11, -2, -2, 5, -2, -2, -2, -2, 4, 6, 3, 2, -2, 6, 11, -2, -2, 5, 9, -2, 0, -2, -2, -2, -2, -2, 11, -2, 6, -2, -2, 11, 0, 2, -2, -2, -2, 9, -2, 2, -2, -2], "threshold": [1.7994558811187744, 0.5, 5.109827280044556, -2.0, 0.012886673212051392, -2.0, 3.7949999570846558, 5.8500001430511475, 6.5, -2.0, 7.894409894943237, 1.5, -2.0, 7.5, -2.0, -2.0, 1.5567563772201538, -2.0, -2.0, -2.0, -2.0, 5.178953409194946, 3.6448869705200195, 1.5, 5.412627935409546, -2.0, 2.450357675552368, 7.0, -2.0, -2.0, 2.524698257446289, 6.5, -2.0, 13.5, -2.0, -2.0, -2.0, -2.0, -2.0, 9.5, -2.0, 3.5950000286102295, -2.0, -2.0, 1.5, 14.0, 7.297588109970093, -2.0, -2.0, -2.0, 7.5, -2.0, 6.300000190734863, -2.0, -2.0], "value": [[[0.5005347593582887, 0.4994652406417112]], [[0.4654970760233918, 0.5345029239766081]], [[0.316, 0.684]], [[1.0, 0.0]], [[0.14156626506024098, 0.858433734939759]], [[1.0, 0.0]], [[0.1337386018237082, 0.8662613981762918]], [[0.12217659137577003, 0.87782340862423]], [[0.031710079275198186, 0.9682899207248018]], [[1.0, 0.0]], [[0.0034965034965034965, 0.9965034965034965]], [[0.0012004801920768306, 0.9987995198079231]], [[0.0, 1.0]], [[0.007936507936507936, 0.9920634920634921]], [[0.0, 1.0]], [[0.08333333333333333, 0.9166666666666666]], [[0.08, 0.92]], [[0.0, 1.0]], [[0.25, 0.75]], [[1.0, 0.0]], [[1.0, 0.0]], [[0.8717391304347826, 0.1282608695652174]], [[0.6705202312138728, 0.32947976878612717]], [[0.6095890410958904, 0.3904109589041096]], [[0.4672897196261682, 0.5327102803738317]], [[1.0, 0.0]], [[0.16176470588235295, 0.8382352941176471]], [[0.75, 0.25]], [[1.0, 0.0]], [[0.5, 0.5]], [[0.08333333333333333, 0.9166666666666666]], [[0.05357142857142857, 0.9464285714285714]], [[1.0, 0.0]], [[0.018518518518518517, 0.9814814814814815]], [[0.08333333333333333, 0.9166666666666666]], [[0.0, 1.0]], [[0.5, 0.5]], [[1.0, 0.0]], [[1.0, 0.0]], [[0.9930313588850174, 0.006968641114982578]], [[1.0, 0.0]], [[0.9166666666666666, 0.08333333333333333]], [[1.0, 0.0]], [[0.6, 0.4]], [[0.875, 0.125]], [[0.2962962962962963, 0.7037037037037037]], [[0.05, 0.95]], [[0.3333333333333333, 0.6666666666666666]], [[0.0, 1.0]], [[1.0, 0.0]], [[0.9924812030075187, 0.007518796992481203]], [[1.0, 0.0]], [[0.96, 0.04]], [[1.0, 0.0]], [[0.5, 0.5]]], "n_node_samples": [1164, 1068, 772, 159, 613, 6, 607, 597, 536, 17, 519, 506, 434, 72, 65, 7, 13, 10, 3, 61, 10, 296, 112, 96, 73, 25, 48, 6, 3, 3, 42, 40, 2, 38, 8, 30, 2, 23, 16, 184, 168, 16, 12, 4, 96, 18, 14, 2, 12, 4, 78, 62, 16, 14, 2], "impurity": [0.4999994280648574, 0.49761909647412883, 0.432288, 0.0, 0.24305051531426913, 0.0, 0.2317051764118957, 0.21449894379113632, 0.0614091002951177, 0.0, 0.00696855591960488, 0.0023980780787705713, 0.0, 0.015747039556563314, 0.0, 0.1527777777777778, 0.1472, 0.0, 0.375, 0.0, 0.0, 0.22362003780718331, 0.44184570149353475, 0.47598048414336647, 0.4978600751157306, 0.0, 0.27119377162629754, 0.375, 0.0, 0.5, 0.1527777777777778, 0.10140306122448983, 0.0, 0.036351165980795574, 0.1527777777777778, 0.0, 0.5, 0.0, 0.0, 0.013840158311986261, 0.0, 0.1527777777777778, 0.0, 0.48, 0.21875, 0.41700960219478733, 0.09499999999999997, 0.4444444444444444, 0.0, 0.0, 0.014924529368534167, 0.0, 0.07679999999999998, 0.0, 0.5]}, {"children_left": [1, -1, 3, 4, 5, -1, 7, 8, 9, 10, -1, -1, 13, -1, -1, -1, 17, -1, -1, 20, -1, 22, -1, -1, 25, -1, 27, -1, -1], "children_right": [2, -1, 24, 19, 6, -1, 16, 15, 12, 11, -1, -1, 14, -1, -1, -1, 18, -1, -1, 21, -1, 23, -1, -1, 26, -1, 28, -1, -1], "feature": [10, -2, 4, 5, 2, -2, 1, 6, 7, 11, -2, -2, 2, -2, -2, -2, 9, -2, -2, 9, -2, 2, -2, -2, 2, -2, 5, -2, -2], "threshold": [6.5, -2.0, 5.793978691101074, 2.3998398780822754, 5.25, -2.0, 0.5, 3.762351155281067, 0.2087150141596794, 3.0, -2.0, -2.0, 7.94204568862915, -2.0, -2.0, -2.0, 6.5, -2.0, -2.0, 6.5, -2.0, 4.799999952316284, -2.0, -2.0, 6.8500001430511475, -2.0, 0.8499999940395355, -2.0, -2.0], "value": [[[0.4919786096256685, 0.5080213903743316]], [[1.0, 0.0]], [[0.27314460596786533, 0.7268553940321346]], [[0.11649580615097857, 0.8835041938490215]], [[0.07991120976692564, 0.9200887902330743]], [[1.0, 0.0]], [[0.023557126030624265, 0.9764428739693758]], [[0.010582010582010581, 0.9894179894179894]], [[0.00796812749003984, 0.9920318725099602]], [[0.15384615384615385, 0.8461538461538461]], [[1.0, 0.0]], [[0.0, 1.0]], [[0.002751031636863824, 0.9972489683631361]], [[0.0, 1.0]], [[0.4, 0.6]], [[0.6666666666666666, 0.3333333333333333]], [[0.12903225806451613, 0.8709677419354839]], [[1.0, 0.0]], [[0.0, 1.0]], [[0.3081395348837209, 0.6918604651162791]], [[1.0, 0.0]], [[0.09848484848484848, 0.9015151515151515]], [[1.0, 0.0]], [[0.0, 1.0]], [[0.9914529914529915, 0.008547008547008548]], [[1.0, 0.0]], [[0.9649122807017544, 0.03508771929824561]], [[0.6666666666666666, 0.3333333333333333]], [[1.0, 0.0]]], "n_node_samples": [1197, 361, 836, 682, 574, 36, 538, 481, 479, 17, 2, 15, 462, 460, 2, 2, 57, 8, 49, 108, 24, 84, 7, 77, 154, 115, 39, 4, 35], "impurity": [0.4998713145929251, 0.0, 0.3970732603970498, 0.20584906660042435, 0.14705081664102404, 0.0, 0.04600437568760307, 0.020940063268105602, 0.01580927286868461, 0.2603550295857988, 0.0, 0.0, 0.005486926923593649, 0.0, 0.48, 0.4444444444444444, 0.22476586888657646, 0.0, 0.0, 0.4263791238507302, 0.0, 0.17757116620752988, 0.0, 0.0, 0.016947914383811824, 0.0, 0.06771314250538629, 0.4444444444444444, 0.0]}, {"children_left": [1, -1, 3, 4, -1, 6, 7, 8, 9, -1, 11, 12, 13, -1, -1, 16, -1, -1, -1, 20, 21, -1, 23, -1, 25, -1, -1, 28, -1, -1, -1, 32, 33, 34, -1, 36, -1, -1, -1, -1, 41, -1, -1], "children_right": [2, -1, 40, 5, -1, 31, 30, 19, 10, -1, 18, 15, 14, -1, -1, 17, -1, -1, -1, 27, 22, -1, 24, -1, 26, -1, -1, 29, -1, -1, -1, 39, 38, 35, -1, 37, -1, -1, -1, -1, 42, -1, -1], "feature": [9, -2, 6, 10, -2, 1, 5, 0, 6, -2, 4, 7, 0, -2, -2, 4, -2, -2, -2, 11, 2, -2, 10, -2, 6, -2, -2, 4, -2, -2, -2, 4, 9, 6, -2, 2, -2, -2, -2, -2, 6, -2, -2], "threshold": [6.5, -2.0, 3.784999966621399, 6.5, -2.0, 0.5, 2.977028489112854, 18.5, 2.1404502391815186, -2.0, 5.842437982559204, 1.895433783531189, 16.5, -2.0, -2.0, 4.771961688995361, -2.0, -2.0, -2.0, 4.5, 7.007121801376343, -2.0, 7.5, -2.0, 2.2786978483200073, -2.0, -2.0, 5.6000001430511475, -2.0, -2.0, -2.0, 5.178953409194946, 9.5, 2.337060809135437, -2.0, 5.012627840042114, -2.0, -2.0, -2.0, -2.0, 3.7949999570846558, -2.0, -2.0], "value": [[[0.5128342245989305, 0.48716577540106953]], [[1.0, 0.0]], [[0.2809786898184688, 0.7190213101815311]], [[0.25102880658436216, 0.7489711934156379]], [[1.0, 0.0]], [[0.11392405063291139, 0.8860759493670886]], [[0.07838745800671892, 0.921612541993281]], [[0.07215332581736189, 0.9278466741826381]], [[0.059665871121718374, 0.9403341288782816]], [[0.9, 0.1]], [[0.049516908212560384, 0.9504830917874396]], [[0.007566204287515763, 0.9924337957124842]], [[0.005095541401273885, 0.9949044585987261]], [[0.0017699115044247787, 0.9982300884955753]], [[0.013636363636363636, 0.9863636363636363]], [[0.25, 0.75]], [[0.0, 1.0]], [[0.6666666666666666, 0.3333333333333333]], [[1.0, 0.0]], [[0.2857142857142857, 0.7142857142857143]], [[0.10526315789473684, 0.8947368421052632]], [[0.75, 0.25]], [[0.029411764705882353, 0.9705882352941176]], [[0.0, 1.0]], [[0.041666666666666664, 0.9583333333333334]], [[0.5, 0.5]], [[0.0, 1.0]], [[0.9090909090909091, 0.09090909090909091]], [[0.5, 0.5]], [[1.0, 0.0]], [[1.0, 0.0]], [[0.35074626865671643, 0.6492537313432836]], [[0.13861386138613863, 0.8613861386138614]], [[0.09574468085106383, 0.9042553191489362]], [[1.0, 0.0]], [[0.0449438202247191, 0.9550561797752809]], [[1.0, 0.0]], [[0.0, 1.0]], [[0.7142857142857143, 0.2857142857142857]], [[1.0, 0.0]], [[0.9807692307692307, 0.019230769230769232]], [[0.6666666666666666, 0.3333333333333333]], [[1.0, 0.0]]], "n_node_samples": [1187, 379, 808, 777, 118, 659, 567, 564, 537, 4, 533, 512, 507, 365, 142, 5, 3, 2, 21, 27, 21, 2, 19, 7, 12, 2, 10, 6, 2, 4, 3, 92, 68, 64, 3, 61, 3, 58, 4, 24, 31, 2, 29], "impurity": [0.49967056535788845, 0.0, 0.404059331372731, 0.37602668969838604, 0.0, 0.20189072264060248, 0.14448572886792765, 0.13389444678171103, 0.11221170989000973, 0.18000000000000005, 0.09412996802725848, 0.015017913680390627, 0.01013915371820362, 0.0035335578353825614, 0.026900826446281, 0.375, 0.0, 0.4444444444444444, 0.0, 0.40816326530612246, 0.18836565096952906, 0.375, 0.05709342560553632, 0.0, 0.07986111111111116, 0.5, 0.0, 0.1652892561983471, 0.5, 0.0, 0.0, 0.4554466473602139, 0.2388001176355259, 0.17315527387958352, 0.0, 0.0858477464966545, 0.0, 0.0, 0.40816326530612246, 0.0, 0.037721893491124314, 0.4444444444444444, 0.0]}, {"children_left": [1, -1, 3, 4, 5, -1, 7, 8, -1, -1, 11, -1, -1, 14, -1, 16, 17, -1, 19, 20, 21, -1, -1, -1, 25, -1, -1, -1, 29, 30, 31, -1, -1, -1, -1], "children_right": [2, -1, 28, 13, 6, -1, 10, 9, -1, -1, 12, -1, -1, 15, -1, 27, 18, -1, 24, 23, 22, -1, -1, -1, 26, -1, -1, -1, 34, 33, 32, -1, -1, -1, -1], "feature": [9, -2, 4, 8, 10, -2, 1, 2, -2, -2, 2, -2, -2, 2, -2, 6, 6, -2, 11, 7, 6, -2, -2, -2, 10, -2, -2, -2, 7, 8, 2, -2, -2, -2, -2], "threshold": [6.5, -2.0, 5.79243803024292, 0.5, 6.5, -2.0, 0.5, 4.5000001192092896, -2.0, -2.0, 5.152165174484253, -2.0, -2.0, 5.049999952316284, -2.0, 3.8049999475479126, 2.1449999809265137, -2.0, 4.5, 1.7933722138404846, 2.238285541534424, -2.0, -2.0, -2.0, 6.5, -2.0, -2.0, -2.0, 0.550000011920929, 0.5, 6.700000047683716, -2.0, -2.0, -2.0, -2.0], "value": [[[0.5096256684491979, 0.4903743315508021]], [[1.0, 0.0]], [[0.2556818181818182, 0.7443181818181818]], [[0.10371819960861056, 0.8962818003913894]], [[0.05137614678899083, 0.9486238532110092]], [[1.0, 0.0]], [[0.017110266159695818, 0.9828897338403042]], [[0.006237006237006237, 0.9937629937629938]], [[1.0, 0.0]], [[0.0, 1.0]], [[0.13333333333333333, 0.8666666666666667]], [[1.0, 0.0]], [[0.0, 1.0]], [[0.16352201257861634, 0.8364779874213837]], [[1.0, 0.0]], [[0.06338028169014084, 0.9366197183098591]], [[0.05, 0.95]], [[1.0, 0.0]], [[0.03855421686746988, 0.9614457831325302]], [[0.006872852233676976, 0.993127147766323]], [[0.003472222222222222, 0.9965277777777778]], [[0.5, 0.5]], [[0.0, 1.0]], [[0.3333333333333333, 0.6666666666666666]], [[0.11290322580645161, 0.8870967741935484]], [[1.0, 0.0]], [[0.0, 1.0]], [[1.0, 0.0]], [[0.9952380952380953, 0.004761904761904762]], [[0.9824561403508771, 0.017543859649122806]], [[0.9230769230769231, 0.07692307692307693]], [[1.0, 0.0]], [[0.6666666666666666, 0.3333333333333333]], [[1.0, 0.0]], [[1.0, 0.0]]], "n_node_samples": [1172, 387, 785, 647, 345, 12, 333, 301, 3, 298, 32, 4, 28, 302, 34, 268, 264, 2, 262, 187, 185, 2, 183, 2, 75, 9, 66, 4, 138, 36, 11, 8, 3, 25, 102], "impurity": [0.4998146930138122, 0.0, 0.38061725206611574, 0.18592146935711795, 0.09747327666021377, 0.0, 0.03363500990328039, 0.01239621198041152, 0.0, 0.0, 0.23111111111111116, 0.0, 0.0, 0.2735651279617104, 0.0, 0.11872644316603853, 0.09499999999999997, 0.0, 0.07413557845841201, 0.013651232271702063, 0.006920331790123413, 0.5, 0.0, 0.4444444444444444, 0.20031217481789798, 0.0, 0.0, 0.0, 0.009478458049886673, 0.03447214527546938, 0.14201183431952658, 0.0, 0.4444444444444444, 0.0, 0.0]}, {"children_left": [1, 2, 3, -1, 5, -1, -1, 8, -1, 10, -1, -1, 13, 14, 15, -1, 17, 18, 19, 20, 21, -1, -1, -1, 25, -1, 27, 28, -1, -1, -1, 32, 33, -1, 35, -1, -1, -1, 39, -1, -1, 42, 43, -1, -1, -1, 47, 48, -1, -1, 51, -1, 53, 54, -1, -1, -1], "children_right": [12, 7, 4, -1, 6, -1, -1, 9, -1, 11, -1, -1, 46, 41, 16, -1, 38, 31, 24, 23, 22, -1, -1, -1, 26, -1, 30, 29, -1, -1, -1, 37, 34, -1, 36, -1, -1, -1, 40, -1, -1, 45, 44, -1, -1, -1, 50, 49, -1, -1, 52, -1, 56, 55, -1, -1, -1], "feature": [2, 8, 2, -2, 0, -2, -2, 5, -2, 5, -2, -2, 7, 4, 9, -2, 3, 4, 2, 11, 10, -2, -2, -2, 11, -2, 5, 8, -2, -2, -2, 1, 4, -2, 6, -2, -2, -2, 10, -2, -2, 7, 11, -2, -2, -2, 11, 5, -2, -2, 2, -2, 6, 10, -2, -2, -2], "threshold": [5.205190658569336, 1.5, 5.138517379760742, -2.0, 14.5, -2.0, -2.0, 2.7084683179855347, -2.0, 2.7991591691970825, -2.0, -2.0, 1.7951210737228394, 5.793978691101074, 6.5, -2.0, 1.5, 5.29955792427063, 6.402554512023926, 7.5, 6.0, -2.0, -2.0, -2.0, 6.5, -2.0, 1.6134191751480103, 1.5, -2.0, -2.0, -2.0, 0.5, 5.317191123962402, -2.0, 3.6609147787094116, -2.0, -2.0, -2.0, 6.5, -2.0, -2.0, 0.550000011920929, 9.5, -2.0, -2.0, -2.0, 1.5, 1.2914418578147888, -2.0, -2.0, 5.3500001430511475, -2.0, 2.274999976158142, 5.5, -2.0, -2.0, -2.0], "value": [[[0.49732620320855614, 0.5026737967914439]], [[0.988313856427379, 0.011686143572621035]], [[0.997624703087886, 0.0023752969121140144]], [[1.0, 0.0]], [[0.9090909090909091, 0.09090909090909091]], [[0.6666666666666666, 0.3333333333333333]], [[1.0, 0.0]], [[0.9662921348314607, 0.033707865168539325]], [[1.0, 0.0]], [[0.7, 0.3]], [[0.0, 1.0]], [[1.0, 0.0]], [[0.26593233674272226, 0.7340676632572777]], [[0.24752475247524752, 0.7524752475247525]], [[0.08450704225352113, 0.9154929577464789]], [[1.0, 0.0]], [[0.0288153681963714, 0.9711846318036286]], [[0.020434227330779056, 0.979565772669221]], [[0.009508716323296355, 0.9904912836767037]], [[0.026737967914438502, 0.9732620320855615]], [[0.0847457627118644, 0.9152542372881356]], [[1.0, 0.0]], [[0.0, 1.0]], [[0.0, 1.0]], [[0.0022522522522522522, 0.9977477477477478]], [[0.0, 1.0]], [[0.011235955056179775, 0.9887640449438202]], [[0.06666666666666667, 0.9333333333333333]], [[0.0, 1.0]], [[0.25, 0.75]], [[0.0, 1.0]], [[0.06578947368421052, 0.9342105263157895]], [[0.020689655172413793, 0.9793103448275862]], [[0.3333333333333333, 0.6666666666666666]], [[0.014084507042253521, 0.9859154929577465]], [[0.0, 1.0]], [[0.6666666666666666, 0.3333333333333333]], [[1.0, 0.0]], [[0.07142857142857142, 0.9285714285714286]], [[1.0, 0.0]], [[0.0, 1.0]], [[0.9908256880733946, 0.009174311926605505]], [[0.9701492537313433, 0.029850746268656716]], [[1.0, 0.0]], [[0.3333333333333333, 0.6666666666666666]], [[1.0, 0.0]], [[0.6440677966101694, 0.3559322033898305]], [[0.10526315789473684, 0.8947368421052632]], [[0.0, 1.0]], [[0.5, 0.5]], [[0.9, 0.1]], [[0.5714285714285714, 0.42857142857142855]], [[0.9696969696969697, 0.030303030303030304]], [[0.8333333333333334, 0.16666666666666666]], [[1.0, 0.0]], [[0.5, 0.5]], [[1.0, 0.0]]], "n_node_samples": [1188, 368, 252, 247, 5, 2, 3, 116, 101, 15, 5, 10, 820, 780, 639, 38, 601, 504, 406, 113, 39, 4, 35, 74, 293, 235, 58, 11, 7, 4, 47, 98, 93, 2, 91, 89, 2, 5, 97, 7, 90, 141, 39, 37, 2, 102, 40, 14, 12, 2, 26, 3, 23, 5, 3, 2, 18], "impurity": [0.4999857016214361, 0.023099155242042202, 0.004739309753386656, 0.0, 0.1652892561983471, 0.4444444444444444, 0.0, 0.06514328998863783, 0.0, 0.42000000000000004, 0.0, 0.0, 0.3904246580345553, 0.3725124987746299, 0.15473120412616548, 0.0, 0.05597008550415794, 0.04003333936834619, 0.018836601274358822, 0.052046097972489935, 0.1551278368284975, 0.0, 0.0, 0.0, 0.004494359224088917, 0.0, 0.022219416740310582, 0.12444444444444447, 0.0, 0.375, 0.0, 0.12292243767313016, 0.04052318668252086, 0.4444444444444444, 0.027772267407260465, 0.0, 0.4444444444444444, 0.0, 0.13265306122448983, 0.0, 0.0, 0.01818028785455772, 0.05791935843172202, 0.0, 0.4444444444444444, 0.0, 0.4584889399597817, 0.18836565096952906, 0.0, 0.5, 0.18000000000000005, 0.4897959183673469, 0.058769513314967825, 0.2777777777777778, 0.0, 0.5, 0.0]}, {"children_left": [1, 2, -1, 4, 5, -1, 7, -1, 9, 10, 11, -1, -1, 14, 15, 16, -1, -1, -1, 20, -1, -1, 23, -1, -1, 26, -1, 28, -1, -1, 31, 32, 33, 34, -1, 36, -1, -1, 39, -1, 41, 42, -1, 44, -1, -1, -1, 48, -1, 50, -1, 52, 53, -1, -1, 56, -1, 58, -1, -1, 61, -1, 63, 64, -1, -1, -1], "children_right": [30, 3, -1, 25, 6, -1, 8, -1, 22, 13, 12, -1, -1, 19, 18, 17, -1, -1, -1, 21, -1, -1, 24, -1, -1, 27, -1, 29, -1, -1, 60, 47, 38, 35, -1, 37, -1, -1, 40, -1, 46, 43, -1, 45, -1, -1, -1, 49, -1, 51, -1, 55, 54, -1, -1, 57, -1, 59, -1, -1, 62, -1, 66, 65, -1, -1, -1], "feature": [8, 9, -2, 4, 2, -2, 4, -2, 1, 4, 10, -2, -2, 8, 5, 4, -2, -2, -2, 2, -2, -2, 10, -2, -2, 6, -2, 6, -2, -2, 1, 5, 0, 10, -2, 4, -2, -2, 9, -2, 4, 2, -2, 0, -2, -2, -2, 10, -2, 9, -2, 10, 4, -2, -2, 2, -2, 5, -2, -2, 6, -2, 6, 11, -2, -2, -2], "threshold": [1.5, 6.5, -2.0, 5.793978691101074, 5.228894472122192, -2.0, 4.100351810455322, -2.0, 0.5, 5.688487529754639, 6.5, -2.0, -2.0, 0.5, 1.25, 5.709514856338501, -2.0, -2.0, -2.0, 6.128022193908691, -2.0, -2.0, 6.5, -2.0, -2.0, 3.600000023841858, -2.0, 3.6750000715255737, -2.0, -2.0, 0.5, 2.107240319252014, 15.5, 8.5, -2.0, 5.950000047683716, -2.0, -2.0, 6.5, -2.0, 5.738606691360474, 4.351741313934326, -2.0, 16.5, -2.0, -2.0, -2.0, 6.5, -2.0, 6.5, -2.0, 9.5, 5.690475702285767, -2.0, -2.0, 5.388088703155518, -2.0, 2.4442912340164185, -2.0, -2.0, 3.5649999380111694, -2.0, 3.7949999570846558, 3.5, -2.0, -2.0, -2.0], "value": [[[0.48823529411764705, 0.5117647058823529]], [[0.4167237834132968, 0.5832762165867033]], [[1.0, 0.0]], [[0.19716981132075473, 0.8028301886792453]], [[0.07809110629067245, 0.9219088937093276]], [[1.0, 0.0]], [[0.02522935779816514, 0.9747706422018348]], [[0.5, 0.5]], [[0.02304147465437788, 0.9769585253456221]], [[0.010165184243964422, 0.9898348157560356]], [[0.006675567423230975, 0.9933244325767691]], [[1.0, 0.0]], [[0.0, 1.0]], [[0.07894736842105263, 0.9210526315789473]], [[0.03333333333333333, 0.9666666666666667]], [[0.06666666666666667, 0.9333333333333333]], [[0.3333333333333333, 0.6666666666666666]], [[0.0, 1.0]], [[0.0, 1.0]], [[0.25, 0.75]], [[0.6666666666666666, 0.3333333333333333]], [[0.0, 1.0]], [[0.14814814814814814, 0.8518518518518519]], [[1.0, 0.0]], [[0.0, 1.0]], [[0.9927536231884058, 0.007246376811594203]], [[1.0, 0.0]], [[0.96, 0.04]], [[0.5, 0.5]], [[1.0, 0.0]], [[0.7420924574209246, 0.25790754257907544]], [[0.6053639846743295, 0.3946360153256705]], [[0.8384615384615385, 0.16153846153846155]], [[0.9824561403508771, 0.017543859649122806]], [[1.0, 0.0]], [[0.9285714285714286, 0.07142857142857142]], [[0.75, 0.25]], [[1.0, 0.0]], [[0.726027397260274, 0.273972602739726]], [[1.0, 0.0]], [[0.5, 0.5]], [[0.16666666666666666, 0.8333333333333334]], [[1.0, 0.0]], [[0.047619047619047616, 0.9523809523809523]], [[0.25, 0.75]], [[0.0, 1.0]], [[1.0, 0.0]], [[0.37404580152671757, 0.6259541984732825]], [[1.0, 0.0]], [[0.15463917525773196, 0.845360824742268]], [[1.0, 0.0]], [[0.046511627906976744, 0.9534883720930233]], [[0.01694915254237288, 0.9830508474576272]], [[0.0, 1.0]], [[0.5, 0.5]], [[0.1111111111111111, 0.8888888888888888]], [[0.6666666666666666, 0.3333333333333333]], [[0.041666666666666664, 0.9583333333333334]], [[0.2, 0.8]], [[0.0, 1.0]], [[0.98, 0.02]], [[1.0, 0.0]], [[0.8888888888888888, 0.1111111111111111]], [[0.7692307692307693, 0.23076923076923078]], [[0.0, 1.0]], [[1.0, 0.0]], [[1.0, 0.0]]], "n_node_samples": [1181, 922, 250, 672, 576, 32, 544, 3, 541, 481, 456, 3, 453, 25, 20, 10, 2, 8, 10, 5, 2, 3, 60, 10, 50, 96, 78, 18, 2, 16, 259, 160, 83, 36, 27, 9, 2, 7, 47, 22, 25, 15, 2, 13, 2, 11, 10, 77, 19, 58, 6, 52, 36, 34, 2, 16, 2, 14, 3, 11, 99, 82, 17, 10, 2, 8, 7], "impurity": [0.4997231833910034, 0.486130143502009, 0.0, 0.3165877536489854, 0.14398577081794273, 0.0, 0.04918567460651457, 0.5, 0.04502113020025911, 0.020123706546501308, 0.013262008445617757, 0.0, 0.0, 0.14542936288088648, 0.06444444444444442, 0.12444444444444447, 0.4444444444444444, 0.0, 0.0, 0.375, 0.4444444444444444, 0.0, 0.25240054869684503, 0.0, 0.0, 0.014387733669397162, 0.0, 0.07679999999999998, 0.5, 0.0, 0.38278248411979565, 0.4777968614670953, 0.27088757396449703, 0.03447214527546938, 0.0, 0.13265306122448983, 0.375, 0.0, 0.3978232313754926, 0.0, 0.5, 0.2777777777777778, 0.0, 0.09070294784580502, 0.375, 0.0, 0.0, 0.4682710797739059, 0.0, 0.2614518014666808, 0.0, 0.08869659275283936, 0.03332375754093653, 0.0, 0.5, 0.19753086419753085, 0.4444444444444444, 0.07986111111111116, 0.31999999999999995, 0.0, 0.03920000000000001, 0.0, 0.19753086419753085, 0.3550295857988166, 0.0, 0.0, 0.0]}, {"children_left": [1, -1, 3, 4, -1, 6, 7, -1, -1, -1, -1], "children_right": [2, -1, 10, 5, -1, 9, 8, -1, -1, -1, -1], "feature": [9, -2, 4, 2, -2, 7, 10, -2, -2, -2, -2], "threshold": [6.5, -2.0, 5.79243803024292, 5.05067253112793, -2.0, 1.9917750358581543, 6.5, -2.0, -2.0, -2.0, -2.0], "value": [[[0.5133689839572193, 0.48663101604278075]], [[1.0, 0.0]], [[0.2547092547092547, 0.7452907452907452]], [[0.09900990099009901, 0.900990099009901]], [[1.0, 0.0]], [[0.0288153681963714, 0.9711846318036286]], [[0.02679528403001072, 0.9732047159699893]], [[1.0, 0.0]], [[0.0, 1.0]], [[0.5, 0.5]], [[1.0, 0.0]]], "n_node_samples": [1197, 395, 802, 666, 51, 615, 613, 18, 595, 2, 136], "impurity": [0.4996425405359032, 0.0, 0.3796649005494215, 0.17841388099205957, 0.0, 0.05597008550415794, 0.0521545935675235, 0.0, 0.0, 0.5, 0.0]}, {"children_left": [1, 2, 3, -1, 5, -1, 7, -1, 9, 10, -1, -1, 13, 14, -1, -1, 17, -1, -1, 20, -1, 22, -1, 24, 25, 26, 27, -1, -1, -1, -1, -1, 33, -1, 35, 36, 37, -1, 39, -1, -1, 42, 43, 44, 45, 46, -1, -1, -1, -1, -1, 52, 53, -1, 55, -1, -1, 58, 59, -1, -1, 62, -1, -1, 65, -1, -1], "children_right": [32, 19, 4, -1, 6, -1, 8, -1, 12, 11, -1, -1, 16, 15, -1, -1, 18, -1, -1, 21, -1, 23, -1, 31, 30, 29, 28, -1, -1, -1, -1, -1, 34, -1, 64, 41, 38, -1, 40, -1, -1, 51, 50, 49, 48, 47, -1, -1, -1, -1, -1, 57, 54, -1, 56, -1, -1, 61, 60, -1, -1, 63, -1, -1, 66, -1, -1], "feature": [1, 3, 10, -2, 2, -2, 9, -2, 8, 4, -2, -2, 2, 9, -2, -2, 10, -2, -2, 9, -2, 10, -2, 5, 7, 6, 2, -2, -2, -2, -2, -2, 10, -2, 0, 2, 6, -2, 6, -2, -2, 2, 8, 7, 11, 9, -2, -2, -2, -2, -2, 8, 7, -2, 4, -2, -2, 7, 9, -2, -2, 9, -2, -2, 2, -2, -2], "threshold": [0.5, 1.5, 6.5, -2.0, 5.109827280044556, -2.0, 6.5, -2.0, 1.5, 5.943978548049927, -2.0, -2.0, 7.26737642288208, 9.0, -2.0, -2.0, 8.5, -2.0, -2.0, 6.5, -2.0, 6.5, -2.0, 2.362645387649536, 1.6952674388885498, 3.680000066757202, 4.5000001192092896, -2.0, -2.0, -2.0, -2.0, -2.0, 6.5, -2.0, 18.5, 5.3500001430511475, 3.7799999713897705, -2.0, 3.819999933242798, -2.0, -2.0, 6.402165174484253, 1.5, 1.550000011920929, 6.0, 8.0, -2.0, -2.0, -2.0, -2.0, -2.0, 0.5, 0.6755658686161041, -2.0, 5.035012483596802, -2.0, -2.0, 1.449999988079071, 9.5, -2.0, -2.0, 7.5, -2.0, -2.0, 7.006584882736206, -2.0, -2.0], "value": [[[0.5037433155080214, 0.49625668449197863]], [[0.3542296072507553, 0.6457703927492447]], [[0.32445290199809707, 0.6755470980019029]], [[1.0, 0.0]], [[0.17249417249417248, 0.8275058275058275]], [[1.0, 0.0]], [[0.0815006468305304, 0.9184993531694696]], [[1.0, 0.0]], [[0.028727770177838577, 0.9712722298221614]], [[0.016366612111292964, 0.983633387888707]], [[0.0, 1.0]], [[1.0, 0.0]], [[0.09166666666666666, 0.9083333333333333]], [[0.047058823529411764, 0.9529411764705882]], [[0.0, 1.0]], [[1.0, 0.0]], [[0.2, 0.8]], [[1.0, 0.0]], [[0.0, 1.0]], [[0.46886446886446886, 0.5311355311355311]], [[1.0, 0.0]], [[0.1807909604519774, 0.8192090395480226]], [[1.0, 0.0]], [[0.11585365853658537, 0.8841463414634146]], [[0.0880503144654088, 0.9119496855345912]], [[0.039735099337748346, 0.9602649006622517]], [[0.02027027027027027, 0.9797297297297297]], [[1.0, 0.0]], [[0.0, 1.0]], [[1.0, 0.0]], [[1.0, 0.0]], [[1.0, 0.0]], [[0.8663003663003663, 0.1336996336996337]], [[1.0, 0.0]], [[0.7296296296296296, 0.27037037037037037]], [[0.7639484978540773, 0.23605150214592274]], [[0.991304347826087, 0.008695652173913044]], [[1.0, 0.0]], [[0.9090909090909091, 0.09090909090909091]], [[0.5, 0.5]], [[1.0, 0.0]], [[0.5423728813559322, 0.4576271186440678]], [[0.30952380952380953, 0.6904761904761905]], [[0.23684210526315788, 0.7631578947368421]], [[0.14705882352941177, 0.8529411764705882]], [[0.5555555555555556, 0.4444444444444444]], [[1.0, 0.0]], [[0.0, 1.0]], [[0.0, 1.0]], [[1.0, 0.0]], [[1.0, 0.0]], [[0.6710526315789473, 0.32894736842105265]], [[0.3870967741935484, 0.6129032258064516]], [[0.0, 1.0]], [[0.631578947368421, 0.3684210526315789]], [[0.0, 1.0]], [[1.0, 0.0]], [[0.8666666666666667, 0.13333333333333333]], [[0.9666666666666667, 0.03333333333333333]], [[1.0, 0.0]], [[0.5, 0.5]], [[0.6666666666666666, 0.3333333333333333]], [[1.0, 0.0]], [[0.2857142857142857, 0.7142857142857143]], [[0.5135135135135135, 0.4864864864864865]], [[1.0, 0.0]], [[0.0, 1.0]]], "n_node_samples": [1148, 812, 640, 117, 523, 54, 469, 23, 446, 375, 367, 8, 71, 48, 46, 2, 23, 3, 20, 172, 59, 113, 11, 102, 100, 97, 94, 2, 92, 3, 3, 2, 336, 169, 167, 141, 64, 56, 8, 2, 6, 77, 27, 25, 22, 7, 4, 3, 15, 3, 2, 50, 20, 7, 13, 7, 6, 30, 21, 19, 2, 9, 5, 4, 26, 15, 11], "impurity": [0.49997197517801484, 0.4575019851954619, 0.43836643276622056, 0.0, 0.2854798658994463, 0.0, 0.1497165827934711, 0.0, 0.055804970796895725, 0.032197492238582925, 0.0, 0.0, 0.16652777777777783, 0.08968858131487889, 0.0, 0.0, 0.31999999999999995, 0.0, 0.0, 0.4980611574018168, 0.0, 0.29621117814165787, 0.0, 0.20486317668054732, 0.1605949131759028, 0.07631244243673518, 0.039718772826880966, 0.0, 0.0, 0.0, 0.0, 0.0, 0.23164808329643494, 0.0, 0.3945404663923182, 0.36066238096115233, 0.01724007561436669, 0.0, 0.1652892561983471, 0.5, 0.0, 0.49640907785119215, 0.42743764172335597, 0.36149584487534625, 0.25086505190311414, 0.49382716049382713, 0.0, 0.0, 0.0, 0.0, 0.0, 0.4414819944598338, 0.47450572320499484, 0.0, 0.46537396121883656, 0.0, 0.0, 0.23111111111111116, 0.06444444444444442, 0.0, 0.5, 0.4444444444444444, 0.0, 0.40816326530612246, 0.4996347699050402, 0.0, 0.0]}, {"children_left": [1, 2, 3, -1, 5, 6, 7, -1, 9, 10, -1, -1, 13, -1, 15, -1, -1, 18, -1, 20, 21, -1, -1, -1, -1, 26, -1, 28, -1, 30, 31, 32, -1, 34, -1, 36, -1, -1, -1, -1, -1], "children_right": [40, 25, 4, -1, 24, 17, 8, -1, 12, 11, -1, -1, 14, -1, 16, -1, -1, 19, -1, 23, 22, -1, -1, -1, -1, 27, -1, 29, -1, 39, 38, 33, -1, 35, -1, 37, -1, -1, -1, -1, -1], "feature": [4, 8, 2, -2, 2, 1, 9, -2, 2, 10, -2, -2, 9, -2, 2, -2, -2, 9, -2, 4, 10, -2, -2, -2, -2, 9, -2, 10, -2, 9, 1, 6, -2, 0, -2, 7, -2, -2, -2, -2, -2], "threshold": [5.793978691101074, 1.5, 5.138517379760742, -2.0, 7.996405601501465, 0.5, 6.5, -2.0, 6.502396583557129, 5.5, -2.0, -2.0, 9.5, -2.0, 7.549266338348389, -2.0, -2.0, 6.5, -2.0, 5.25, 6.5, -2.0, -2.0, -2.0, -2.0, 6.5, -2.0, 6.5, -2.0, 8.5, 0.5, 2.4425461292266846, -2.0, 17.5, -2.0, 0.6358646154403687, -2.0, -2.0, -2.0, -2.0, -2.0], "value": [[[0.5096256684491979, 0.4903743315508021]], [[0.2616747181964573, 0.7383252818035426]], [[0.20597014925373133, 0.7940298507462686]], [[1.0, 0.0]], [[0.07209302325581396, 0.9279069767441861]], [[0.06884480746791131, 0.9311551925320887]], [[0.048, 0.952]], [[1.0, 0.0]], [[0.008333333333333333, 0.9916666666666667]], [[0.025, 0.975]], [[1.0, 0.0]], [[0.0, 1.0]], [[0.0019230769230769232, 0.9980769230769231]], [[0.0, 1.0]], [[0.012658227848101266, 0.9873417721518988]], [[0.0, 1.0]], [[0.3333333333333333, 0.6666666666666666]], [[0.21495327102803738, 0.7850467289719626]], [[1.0, 0.0]], [[0.10638297872340426, 0.8936170212765957]], [[0.034482758620689655, 0.9655172413793104]], [[1.0, 0.0]], [[0.0, 1.0]], [[1.0, 0.0]], [[1.0, 0.0]], [[0.4978902953586498, 0.5021097046413502]], [[1.0, 0.0]], [[0.25625, 0.74375]], [[1.0, 0.0]], [[0.0703125, 0.9296875]], [[0.03278688524590164, 0.9672131147540983]], [[0.025, 0.975]], [[0.6666666666666666, 0.3333333333333333]], [[0.008547008547008548, 0.9914529914529915]], [[0.0, 1.0]], [[0.1111111111111111, 0.8888888888888888]], [[0.5, 0.5]], [[0.0, 1.0]], [[0.5, 0.5]], [[0.8333333333333334, 0.16666666666666666]], [[1.0, 0.0]]], "n_node_samples": [1174, 791, 639, 92, 547, 545, 480, 17, 463, 128, 2, 126, 335, 285, 50, 47, 3, 65, 10, 55, 50, 3, 47, 5, 2, 152, 50, 102, 19, 83, 81, 79, 2, 77, 71, 6, 2, 4, 2, 2, 383], "impurity": [0.4998146930138122, 0.38640212010652397, 0.32709289374025396, 0.0, 0.13379123850730124, 0.12821039990523508, 0.09139200000000003, 0.0, 0.016527777777777808, 0.04874999999999996, 0.0, 0.0, 0.003838757396449677, 0.0, 0.02499599423169363, 0.0, 0.4444444444444444, 0.337496724604769, 0.0, 0.19013128112267996, 0.06658739595719376, 0.0, 0.0, 0.0, 0.0, 0.49999109829265254, 0.0, 0.38117187500000005, 0.0, 0.1307373046875, 0.06342381080354742, 0.04874999999999996, 0.4444444444444444, 0.016947914383811824, 0.0, 0.19753086419753085, 0.5, 0.0, 0.5, 0.2777777777777778, 0.0]}, {"children_left": [1, 2, -1, 4, 5, 6, -1, 8, -1, 10, 11, -1, 13, -1, -1, 16, -1, -1, 19, 20, 21, -1, -1, 24, -1, -1, -1, -1, 29, 30, -1, 32, -1, 34, 35, -1, -1, -1, 39, -1, 41, -1, -1], "children_right": [28, 3, -1, 27, 18, 7, -1, 9, -1, 15, 12, -1, 14, -1, -1, 17, -1, -1, 26, 23, 22, -1, -1, 25, -1, -1, -1, -1, 38, 31, -1, 33, -1, 37, 36, -1, -1, -1, 40, -1, 42, -1, -1], "feature": [1, 10, -2, 4, 10, 9, -2, 6, -2, 0, 5, -2, 5, -2, -2, 2, -2, -2, 11, 4, 6, -2, -2, 2, -2, -2, -2, -2, 8, 9, -2, 2, -2, 4, 10, -2, -2, -2, 6, -2, 6, -2, -2], "threshold": [0.5, 6.5, -2.0, 5.782819509506226, 9.5, 6.5, -2.0, 2.147012233734131, -2.0, 16.5, 2.3998398780822754, -2.0, 2.4030513763427734, -2.0, -2.0, 4.704125761985779, -2.0, -2.0, 5.5, 5.288606882095337, 2.5605558156967163, -2.0, -2.0, 4.550000071525574, -2.0, -2.0, -2.0, -2.0, 1.5, 6.5, -2.0, 5.3500001430511475, -2.0, 5.299999952316284, 6.5, -2.0, -2.0, -2.0, 3.784999966621399, -2.0, 3.8249999284744263, -2.0, -2.0], "value": [[[0.5058823529411764, 0.49411764705882355]], [[0.35175097276264594, 0.6482490272373541]], [[1.0, 0.0]], [[0.17443012884043607, 0.8255698711595639]], [[0.06614349775784753, 0.9338565022421524]], [[0.055487053020961775, 0.9445129469790382]], [[1.0, 0.0]], [[0.009055627425614488, 0.9909443725743855]], [[0.6666666666666666, 0.3333333333333333]], [[0.006493506493506494, 0.9935064935064936]], [[0.0019047619047619048, 0.9980952380952381]], [[0.0, 1.0]], [[0.012987012987012988, 0.987012987012987]], [[0.5, 0.5]], [[0.0, 1.0]], [[0.0163265306122449, 0.9836734693877551]], [[1.0, 0.0]], [[0.0, 1.0]], [[0.1728395061728395, 0.8271604938271605]], [[0.10666666666666667, 0.8933333333333333]], [[0.015873015873015872, 0.9841269841269841]], [[0.5, 0.5]], [[0.0, 1.0]], [[0.5833333333333334, 0.4166666666666667]], [[1.0, 0.0]], [[0.0, 1.0]], [[1.0, 0.0]], [[1.0, 0.0]], [[0.8444444444444444, 0.15555555555555556]], [[0.7884615384615384, 0.21153846153846154]], [[1.0, 0.0]], [[0.5789473684210527, 0.42105263157894735]], [[1.0, 0.0]], [[0.30158730158730157, 0.6984126984126984]], [[0.06382978723404255, 0.9361702127659575]], [[1.0, 0.0]], [[0.0, 1.0]], [[1.0, 0.0]], [[0.9822485207100592, 0.01775147928994083]], [[1.0, 0.0]], [[0.8235294117647058, 0.17647058823529413]], [[0.4, 0.6]], [[1.0, 0.0]]], "n_node_samples": [1163, 809, 170, 639, 566, 517, 22, 495, 2, 493, 335, 284, 51, 2, 49, 158, 3, 155, 49, 44, 36, 2, 34, 8, 3, 5, 5, 73, 354, 249, 124, 125, 49, 76, 54, 3, 51, 22, 105, 95, 10, 3, 7], "impurity": [0.4999307958477509, 0.45604445184635645, 0.0, 0.2880085179862899, 0.12353707092441035, 0.1048164799360215, 0.0, 0.01794724607508591, 0.4444444444444444, 0.012902681733850563, 0.003802267573696172, 0.0, 0.02563670096137627, 0.5, 0.0, 0.032119950020824684, 0.0, 0.0, 0.2859320225575369, 0.19057777777777773, 0.031242126480221732, 0.5, 0.0, 0.48611111111111116, 0.0, 0.0, 0.0, 0.0, 0.2627160493827161, 0.33357988165680474, 0.0, 0.48753462603878117, 0.0, 0.4212648022171832, 0.11951109099139878, 0.0, 0.0, 0.0, 0.034872728545919274, 0.0, 0.2906574394463668, 0.48, 0.0]}, {"children_left": [1, 2, 3, 4, 5, -1, -1, -1, -1, 10, -1, 12, 13, 14, 15, -1, 17, -1, -1, 20, -1, -1, -1, 24, 25, -1, 27, 28, 29, 30, -1, -1, 33, -1, -1, -1, 37, 38, -1, -1, 41, -1, -1, 44, -1, 46, 47, 48, -1, 50, -1, -1, -1, -1, 55, 56, -1, -1, -1], "children_right": [54, 9, 8, 7, 6, -1, -1, -1, -1, 11, -1, 23, 22, 19, 16, -1, 18, -1, -1, 21, -1, -1, -1, 43, 26, -1, 36, 35, 32, 31, -1, -1, 34, -1, -1, -1, 40, 39, -1, -1, 42, -1, -1, 45, -1, 53, 52, 49, -1, 51, -1, -1, -1, -1, 58, 57, -1, -1, -1], "feature": [6, 2, 3, 4, 6, -2, -2, -2, -2, 10, -2, 6, 8, 2, 11, -2, 4, -2, -2, 4, -2, -2, -2, 7, 9, -2, 8, 11, 11, 1, -2, -2, 4, -2, -2, -2, 5, 4, -2, -2, 4, -2, -2, 9, -2, 5, 7, 0, -2, 2, -2, -2, -2, -2, 6, 4, -2, -2, -2], "threshold": [3.756819486618042, 5.203948974609375, 0.5, 4.5576581954956055, 3.408254861831665, -2.0, -2.0, -2.0, -2.0, 6.5, -2.0, 2.362191319465637, 1.5, 7.337668180465698, 8.0, -2.0, 5.394298076629639, -2.0, -2.0, 7.048150300979614, -2.0, -2.0, -2.0, 1.5998306274414062, 6.5, -2.0, 1.5, 7.5, 4.5, 0.5, -2.0, -2.0, 6.199999809265137, -2.0, -2.0, -2.0, 2.0146833658218384, 6.043002605438232, -2.0, -2.0, 5.689683198928833, -2.0, -2.0, 7.5, -2.0, 2.494156241416931, 1.9939828515052795, 14.5, -2.0, 6.871959924697876, -2.0, -2.0, -2.0, -2.0, 3.7949999570846558, 4.262897729873657, -2.0, -2.0, -2.0], "value": [[[0.4893048128342246, 0.5106951871657754]], [[0.4552752293577982, 0.5447247706422018]], [[0.9873949579831933, 0.012605042016806723]], [[0.9612903225806452, 0.03870967741935484]], [[0.7857142857142857, 0.21428571428571427]], [[1.0, 0.0]], [[0.0, 1.0]], [[1.0, 0.0]], [[1.0, 0.0]], [[0.2555205047318612, 0.7444794952681388]], [[1.0, 0.0]], [[0.12430426716141002, 0.87569573283859]], [[0.45588235294117646, 0.5441176470588235]], [[0.3018867924528302, 0.6981132075471698]], [[0.6190476190476191, 0.38095238095238093]], [[1.0, 0.0]], [[0.1111111111111111, 0.8888888888888888]], [[0.0, 1.0]], [[0.5, 0.5]], [[0.09375, 0.90625]], [[0.0, 1.0]], [[1.0, 0.0]], [[1.0, 0.0]], [[0.10198019801980197, 0.898019801980198]], [[0.07674418604651163, 0.9232558139534883]], [[1.0, 0.0]], [[0.02696078431372549, 0.9730392156862745]], [[0.015873015873015872, 0.9841269841269841]], [[0.024943310657596373, 0.9750566893424036]], [[0.016574585635359115, 0.9834254143646409]], [[0.014005602240896359, 0.9859943977591037]], [[0.2, 0.8]], [[0.06329113924050633, 0.9367088607594937]], [[0.0, 1.0]], [[1.0, 0.0]], [[0.0, 1.0]], [[0.08943089430894309, 0.9105691056910569]], [[0.21951219512195122, 0.7804878048780488]], [[0.0, 1.0]], [[1.0, 0.0]], [[0.024390243902439025, 0.975609756097561]], [[0.0, 1.0]], [[0.6666666666666666, 0.3333333333333333]], [[0.24666666666666667, 0.7533333333333333]], [[1.0, 0.0]], [[0.08130081300813008, 0.9186991869918699]], [[0.05982905982905983, 0.9401709401709402]], [[0.043859649122807015, 0.956140350877193]], [[0.0, 1.0]], [[0.09803921568627451, 0.9019607843137255]], [[1.0, 0.0]], [[0.0, 1.0]], [[0.6666666666666666, 0.3333333333333333]], [[0.5, 0.5]], [[0.9603174603174603, 0.03968253968253968]], [[0.7916666666666666, 0.20833333333333334]], [[0.0, 1.0]], [[1.0, 0.0]], [[1.0, 0.0]]], "n_node_samples": [1189, 1110, 313, 110, 20, 16, 4, 90, 203, 797, 114, 683, 44, 34, 14, 7, 7, 5, 2, 20, 18, 2, 10, 639, 545, 30, 515, 440, 275, 227, 223, 4, 48, 45, 3, 165, 75, 23, 18, 5, 52, 50, 2, 94, 18, 76, 73, 70, 40, 30, 3, 27, 3, 3, 79, 16, 4, 12, 63], "impurity": [0.49977122594297807, 0.49599938978200486, 0.024892309865122475, 0.07442247658688861, 0.33673469387755106, 0.0, 0.0, 0.0, 0.0, 0.38045955278687216, 0.0, 0.21770543265374964, 0.4961072664359861, 0.421502313990744, 0.47165532879818595, 0.0, 0.19753086419753085, 0.0, 0.5, 0.169921875, 0.0, 0.0, 0.0, 0.18316047446328787, 0.14170903190914008, 0.0, 0.05246780084582858, 0.031242126480221732, 0.04864228382207003, 0.03259973749275058, 0.027618890693532294, 0.31999999999999995, 0.11857074186829031, 0.0, 0.0, 0.0, 0.16286601890409147, 0.34265318262938727, 0.0, 0.0, 0.04759071980963714, 0.0, 0.4444444444444444, 0.37164444444444444, 0.0, 0.1493819816246943, 0.1124990868580612, 0.08387196060326252, 0.0, 0.17685505574778926, 0.0, 0.0, 0.4444444444444444, 0.5, 0.07621567145376673, 0.32986111111111116, 0.0, 0.0, 0.0]}, {"children_left": [1, -1, 3, 4, -1, 6, 7, -1, 9, -1, -1, 12, 13, -1, -1, -1, -1], "children_right": [2, -1, 16, 5, -1, 11, 8, -1, 10, -1, -1, 15, 14, -1, -1, -1, -1], "feature": [9, -2, 4, 10, -2, 6, 7, -2, 11, -2, -2, 5, 2, -2, -2, -2, -2], "threshold": [6.5, -2.0, 5.793978691101074, 6.5, -2.0, 2.200868844985962, 0.4600117355585098, -2.0, 5.0, -2.0, -2.0, 2.8827168941497803, 4.850672483444214, -2.0, -2.0, -2.0, -2.0], "value": [[[0.5304812834224599, 0.46951871657754013]], [[1.0, 0.0]], [[0.2809172809172809, 0.719082719082719]], [[0.10772357723577236, 0.8922764227642277]], [[1.0, 0.0]], [[0.03303964757709251, 0.9669603524229075]], [[0.5555555555555556, 0.4444444444444444]], [[0.0, 1.0]], [[0.8333333333333334, 0.16666666666666666]], [[0.3333333333333333, 0.6666666666666666]], [[1.0, 0.0]], [[0.02247191011235955, 0.9775280898876404]], [[0.020361990950226245, 0.9796380090497737]], [[1.0, 0.0]], [[0.0, 1.0]], [[0.3333333333333333, 0.6666666666666666]], [[1.0, 0.0]]], "n_node_samples": [1181, 400, 781, 640, 50, 590, 11, 5, 6, 2, 4, 579, 576, 13, 563, 3, 141], "impurity": [0.4981417827218393, 0.0, 0.4040055243986448, 0.19223841628660188, 0.0, 0.06389605853014813, 0.49382716049382713, 0.0, 0.2777777777777778, 0.4444444444444444, 0.0, 0.04393384673652312, 0.03989476054953833, 0.0, 0.0, 0.4444444444444444, 0.0]}, {"children_left": [1, 2, -1, 4, 5, 6, 7, -1, 9, 10, -1, -1, 13, -1, -1, 16, 17, -1, 19, -1, -1, -1, -1, -1, 25, -1, 27, 28, 29, -1, 31, -1, -1, 34, -1, 36, -1, -1, 39, 40, 41, 42, -1, 44, -1, -1, -1, -1, 49, -1, 51, 52, 53, -1, -1, -1, -1], "children_right": [24, 3, -1, 23, 22, 15, 8, -1, 12, 11, -1, -1, 14, -1, -1, 21, 18, -1, 20, -1, -1, -1, -1, -1, 26, -1, 38, 33, 30, -1, 32, -1, -1, 35, -1, 37, -1, -1, 48, 47, 46, 43, -1, 45, -1, -1, -1, -1, 50, -1, 56, 55, 54, -1, -1, -1, -1], "feature": [1, 2, -2, 6, 4, 7, 10, -2, 7, 11, -2, -2, 9, -2, -2, 8, 6, -2, 6, -2, -2, -2, -2, -2, 9, -2, 3, 0, 2, -2, 7, -2, -2, 6, -2, 10, -2, -2, 10, 4, 3, 11, -2, 10, -2, -2, -2, -2, 7, -2, 5, 4, 4, -2, -2, -2, -2], "threshold": [0.5, 5.100672483444214, -2.0, 3.798755645751953, 5.79243803024292, 1.7994558811187744, 6.5, -2.0, 0.20752757787704468, 3.5, -2.0, -2.0, 6.5, -2.0, -2.0, 1.0, 2.669236660003662, -2.0, 3.004382014274597, -2.0, -2.0, -2.0, -2.0, -2.0, 6.5, -2.0, 0.5, 14.5, 7.604119062423706, -2.0, 0.8689679205417633, -2.0, -2.0, 3.3600000143051147, -2.0, 6.5, -2.0, -2.0, 8.5, 4.807777404785156, 1.5, 1.5, -2.0, 5.5, -2.0, -2.0, -2.0, -2.0, 0.6000000089406967, -2.0, 2.625360131263733, 6.0, 4.206138610839844, -2.0, -2.0, -2.0, -2.0], "value": [[[0.506951871657754, 0.493048128342246]], [[0.3547140649149923, 0.6452859350850078]], [[1.0, 0.0]], [[0.16583416583416583, 0.8341658341658341]], [[0.14795918367346939, 0.8520408163265306]], [[0.045714285714285714, 0.9542857142857143]], [[0.03985932004689332, 0.9601406799531067]], [[1.0, 0.0]], [[0.00847457627118644, 0.9915254237288136]], [[0.07692307692307693, 0.9230769230769231]], [[1.0, 0.0]], [[0.0, 1.0]], [[0.00625, 0.99375]], [[1.0, 0.0]], [[0.0, 1.0]], [[0.2727272727272727, 0.7272727272727273]], [[0.2, 0.8]], [[1.0, 0.0]], [[0.1111111111111111, 0.8888888888888888]], [[0.0, 1.0]], [[0.4, 0.6]], [[1.0, 0.0]], [[1.0, 0.0]], [[1.0, 0.0]], [[0.8489583333333334, 0.15104166666666666]], [[1.0, 0.0]], [[0.6847826086956522, 0.31521739130434784]], [[0.8297872340425532, 0.1702127659574468]], [[0.5714285714285714, 0.42857142857142855]], [[1.0, 0.0]], [[0.0625, 0.9375]], [[0.0, 1.0]], [[0.3333333333333333, 0.6666666666666666]], [[0.9830508474576272, 0.01694915254237288]], [[1.0, 0.0]], [[0.9090909090909091, 0.09090909090909091]], [[1.0, 0.0]], [[0.8, 0.2]], [[0.6098901098901099, 0.3901098901098901]], [[0.90625, 0.09375]], [[0.4375, 0.5625]], [[0.25, 0.75]], [[0.0, 1.0]], [[0.375, 0.625]], [[1.0, 0.0]], [[0.0, 1.0]], [[1.0, 0.0]], [[1.0, 0.0]], [[0.27906976744186046, 0.7209302325581395]], [[1.0, 0.0]], [[0.18421052631578946, 0.8157894736842105]], [[0.1388888888888889, 0.8611111111111112]], [[0.015873015873015872, 0.9841269841269841]], [[0.5, 0.5]], [[0.0, 1.0]], [[1.0, 0.0]], [[1.0, 0.0]]], "n_node_samples": [1190, 832, 183, 649, 634, 564, 547, 15, 532, 18, 2, 16, 514, 4, 510, 17, 15, 2, 13, 10, 3, 2, 70, 15, 358, 192, 166, 56, 24, 14, 10, 8, 2, 32, 25, 7, 4, 3, 110, 60, 11, 7, 2, 5, 2, 3, 4, 49, 50, 5, 45, 43, 37, 2, 35, 6, 2], "impurity": [0.4999033429609082, 0.4577839941329498, 0.0, 0.2766663905525044, 0.25213452728029984, 0.08724897959183675, 0.07654110930458524, 0.0, 0.016805515656420522, 0.14201183431952658, 0.0, 0.0, 0.012421875000000027, 0.0, 0.0, 0.39669421487603307, 0.31999999999999995, 0.0, 0.19753086419753085, 0.0, 0.48, 0.0, 0.0, 0.0, 0.2564561631944444, 0.0, 0.43171077504725897, 0.2824807605251245, 0.4897959183673469, 0.0, 0.1171875, 0.0, 0.4444444444444444, 0.03332375754093653, 0.0, 0.1652892561983471, 0.0, 0.31999999999999995, 0.47584832749667916, 0.169921875, 0.4921875, 0.375, 0.0, 0.46875, 0.0, 0.0, 0.0, 0.0, 0.40237966468361275, 0.0, 0.30055401662049863, 0.23919753086419748, 0.031242126480221732, 0.5, 0.0, 0.0, 0.0]}, {"children_left": [1, -1, 3, 4, -1, 6, 7, 8, -1, 10, -1, -1, 13, 14, -1, 16, -1, -1, 19, 20, -1, -1, -1, -1, 25, 26, -1, 28, 29, 30, -1, -1, -1, 34, -1, 36, -1, -1, 39, 40, -1, -1, -1], "children_right": [2, -1, 24, 5, -1, 23, 12, 9, -1, 11, -1, -1, 18, 15, -1, 17, -1, -1, 22, 21, -1, -1, -1, -1, 38, 27, -1, 33, 32, 31, -1, -1, -1, 35, -1, 37, -1, -1, 42, 41, -1, -1, -1], "feature": [10, -2, 1, 9, -2, 4, 3, 8, -2, 2, -2, -2, 10, 9, -2, 2, -2, -2, 0, 5, -2, -2, -2, -2, 10, 9, -2, 5, 4, 2, -2, -2, -2, 0, -2, 6, -2, -2, 11, 4, -2, -2, -2], "threshold": [6.5, -2.0, 0.5, 6.5, -2.0, 5.8500001430511475, 1.5, 1.5, -2.0, 5.127478837966919, -2.0, -2.0, 8.5, 7.5, -2.0, 6.8033835887908936, -2.0, -2.0, 14.5, 0.6360267996788025, -2.0, -2.0, -2.0, -2.0, 9.5, 6.5, -2.0, 2.4928663969039917, 5.25, 4.700000047683716, -2.0, -2.0, -2.0, 18.5, -2.0, 2.4474477767944336, -2.0, -2.0, 3.5, 6.799999952316284, -2.0, -2.0, -2.0], "value": [[[0.4914438502673797, 0.5085561497326203]], [[1.0, 0.0]], [[0.2849624060150376, 0.7150375939849624]], [[0.17395437262357413, 0.8260456273764258]], [[1.0, 0.0]], [[0.06458557588805167, 0.9354144241119483]], [[0.009122006841505131, 0.9908779931584949]], [[0.00410958904109589, 0.9958904109589041]], [[0.0, 1.0]], [[0.024390243902439025, 0.975609756097561]], [[0.42857142857142855, 0.5714285714285714]], [[0.0, 1.0]], [[0.034013605442176874, 0.9659863945578231]], [[0.05172413793103448, 0.9482758620689655]], [[0.0, 1.0]], [[0.15, 0.85]], [[0.75, 0.25]], [[0.0, 1.0]], [[0.02247191011235955, 0.9775280898876404]], [[0.125, 0.875]], [[0.0, 1.0]], [[0.5, 0.5]], [[0.0, 1.0]], [[1.0, 0.0]], [[0.7050359712230215, 0.2949640287769784]], [[0.6553191489361702, 0.3446808510638298]], [[1.0, 0.0]], [[0.3816793893129771, 0.6183206106870229]], [[0.2268041237113402, 0.7731958762886598]], [[0.0625, 0.9375]], [[1.0, 0.0]], [[0.0, 1.0]], [[1.0, 0.0]], [[0.8235294117647058, 0.17647058823529413]], [[1.0, 0.0]], [[0.25, 0.75]], [[0.0, 1.0]], [[0.6666666666666666, 0.3333333333333333]], [[0.9767441860465116, 0.023255813953488372]], [[0.9, 0.1]], [[0.6666666666666666, 0.3333333333333333]], [[1.0, 0.0]], [[1.0, 0.0]]], "n_node_samples": [1170, 344, 826, 658, 78, 580, 544, 449, 375, 74, 2, 72, 95, 41, 24, 17, 2, 15, 54, 10, 8, 2, 44, 36, 168, 139, 61, 78, 61, 49, 4, 45, 12, 17, 12, 5, 3, 2, 29, 6, 2, 4, 23], "impurity": [0.49985358460350593, 0.0, 0.4075176663463169, 0.2873884977374257, 0.0, 0.12082855855052077, 0.01807759166537737, 0.008185400638018425, 0.0, 0.04759071980963714, 0.4897959183673469, 0.0, 0.06571336017400153, 0.09809750297265163, 0.0, 0.255, 0.375, 0.0, 0.04393384673652312, 0.21875, 0.0, 0.5, 0.0, 0.0, 0.4159205010092645, 0.45175192394748753, 0.0, 0.47200046617329994, 0.3507280263577426, 0.1171875, 0.0, 0.0, 0.0, 0.2906574394463668, 0.0, 0.375, 0.0, 0.4444444444444444, 0.045429962141698255, 0.18000000000000005, 0.4444444444444444, 0.0, 0.0]}, {"children_left": [1, 2, -1, 4, 5, 6, -1, 8, -1, -1, 11, 12, 13, 14, -1, -1, -1, -1, 19, 20, -1, 22, -1, -1, 25, 26, -1, 28, 29, -1, -1, -1, -1, 34, -1, 36, 37, -1, 39, 40, -1, -1, 43, -1, -1, -1, 47, -1, 49, -1, 51, 52, 53, 54, 55, 56, -1, -1, -1, -1, -1, 62, -1, -1, -1], "children_right": [46, 3, -1, 33, 10, 7, -1, 9, -1, -1, 18, 17, 16, 15, -1, -1, -1, -1, 24, 21, -1, 23, -1, -1, 32, 27, -1, 31, 30, -1, -1, -1, -1, 35, -1, 45, 38, -1, 42, 41, -1, -1, 44, -1, -1, -1, 48, -1, 50, -1, 64, 61, 60, 59, 58, 57, -1, -1, -1, -1, -1, 63, -1, -1, -1], "feature": [3, 9, -2, 8, 1, 10, -2, 4, -2, -2, 3, 4, 4, 11, -2, -2, -2, -2, 7, 2, -2, 4, -2, -2, 9, 2, -2, 4, 8, -2, -2, -2, -2, 10, -2, 9, 2, -2, 10, 2, -2, -2, 5, -2, -2, -2, 2, -2, 9, -2, 6, 1, 4, 7, 10, 6, -2, -2, -2, -2, -2, 4, -2, -2, -2], "threshold": [1.5, 6.5, -2.0, 1.5, 0.5, 6.5, -2.0, 5.843978643417358, -2.0, -2.0, 0.5, 4.391762018203735, 4.308518171310425, 6.0, -2.0, -2.0, -2.0, -2.0, 0.9037416875362396, 5.66018533706665, -2.0, 4.8163580894470215, -2.0, -2.0, 9.5, 5.412627935409546, -2.0, 5.578953504562378, 0.5, -2.0, -2.0, -2.0, -2.0, 6.5, -2.0, 8.5, 4.859827280044556, -2.0, 7.5, 5.474019765853882, -2.0, -2.0, 1.114536702632904, -2.0, -2.0, -2.0, 5.309208393096924, -2.0, 6.5, -2.0, 3.680000066757202, 0.5, 6.349999904632568, 1.6101632714271545, 7.5, 2.4399642944335938, -2.0, -2.0, -2.0, -2.0, -2.0, 5.1000001430511475, -2.0, -2.0, -2.0], "value": [[[0.49572192513368984, 0.5042780748663102]], [[0.4420391061452514, 0.5579608938547486]], [[1.0, 0.0]], [[0.23467432950191572, 0.7653256704980843]], [[0.1829121540312876, 0.8170878459687124]], [[0.10741301059001512, 0.8925869894099848]], [[1.0, 0.0]], [[0.04220779220779221, 0.9577922077922078]], [[0.0, 1.0]], [[1.0, 0.0]], [[0.4764705882352941, 0.5235294117647059]], [[0.8035714285714286, 0.19642857142857142]], [[0.15384615384615385, 0.8461538461538461]], [[0.25, 0.75]], [[1.0, 0.0]], [[0.0, 1.0]], [[0.0, 1.0]], [[1.0, 0.0]], [[0.3157894736842105, 0.6842105263157895]], [[0.8235294117647058, 0.17647058823529413]], [[1.0, 0.0]], [[0.5, 0.5]], [[0.0, 1.0]], [[1.0, 0.0]], [[0.2268041237113402, 0.7731958762886598]], [[0.21052631578947367, 0.7894736842105263]], [[1.0, 0.0]], [[0.07407407407407407, 0.9259259259259259]], [[0.025974025974025976, 0.974025974025974]], [[0.0, 1.0]], [[0.044444444444444446, 0.9555555555555556]], [[1.0, 0.0]], [[1.0, 0.0]], [[0.43661971830985913, 0.5633802816901409]], [[1.0, 0.0]], [[0.1891891891891892, 0.8108108108108109]], [[0.09090909090909091, 0.9090909090909091]], [[1.0, 0.0]], [[0.047619047619047616, 0.9523809523809523]], [[0.3125, 0.6875]], [[0.0, 1.0]], [[1.0, 0.0]], [[0.00909090909090909, 0.990909090909091]], [[0.2, 0.8]], [[0.0, 1.0]], [[1.0, 0.0]], [[0.6712328767123288, 0.3287671232876712]], [[1.0, 0.0]], [[0.4049586776859504, 0.5950413223140496]], [[1.0, 0.0]], [[0.21311475409836064, 0.7868852459016393]], [[0.13253012048192772, 0.8674698795180723]], [[0.04697986577181208, 0.9530201342281879]], [[0.020689655172413793, 0.9793103448275862]], [[0.007042253521126761, 0.9929577464788732]], [[0.058823529411764705, 0.9411764705882353]], [[0.3333333333333333, 0.6666666666666666]], [[0.0, 1.0]], [[0.0, 1.0]], [[0.6666666666666666, 0.3333333333333333]], [[1.0, 0.0]], [[0.8823529411764706, 0.11764705882352941]], [[0.0, 1.0]], [[1.0, 0.0]], [[1.0, 0.0]]], "n_node_samples": [1180, 908, 244, 664, 536, 435, 32, 403, 386, 17, 101, 34, 9, 6, 2, 4, 3, 25, 67, 12, 6, 6, 3, 3, 55, 53, 8, 45, 43, 20, 23, 2, 2, 128, 42, 86, 76, 3, 73, 10, 8, 2, 63, 4, 59, 10, 272, 120, 152, 40, 112, 103, 91, 87, 85, 8, 2, 6, 77, 2, 4, 12, 2, 10, 9], "impurity": [0.4999633961508765, 0.49328106956711715, 0.0, 0.35920457714948406, 0.2989105958778443, 0.19175091149200885, 0.0, 0.08085258896947212, 0.0, 0.0, 0.49889273356401387, 0.31568877551020413, 0.2603550295857988, 0.375, 0.0, 0.0, 0.0, 0.0, 0.43213296398891965, 0.2906574394463668, 0.0, 0.5, 0.0, 0.0, 0.3507280263577426, 0.332409972299169, 0.0, 0.13717421124828533, 0.05059875189745322, 0.0, 0.08493827160493828, 0.0, 0.0, 0.4919658797857568, 0.0, 0.3067932797662527, 0.1652892561983471, 0.0, 0.09070294784580502, 0.4296875, 0.0, 0.0, 0.01801652892561989, 0.31999999999999995, 0.0, 0.0, 0.44135860386564085, 0.0, 0.48193429410559385, 0.0, 0.33539371136791185, 0.22993177529394693, 0.08954551596774918, 0.04052318668252086, 0.013985320372941867, 0.11072664359861595, 0.4444444444444444, 0.0, 0.0, 0.4444444444444444, 0.0, 0.2076124567474048, 0.0, 0.0, 0.0]}, {"children_left": [1, 2, -1, 4, -1, 6, 7, 8, -1, -1, 11, -1, -1, -1, 15, 16, -1, -1, -1], "children_right": [14, 3, -1, 5, -1, 13, 10, 9, -1, -1, 12, -1, -1, -1, 18, 17, -1, -1, -1], "feature": [4, 2, -2, 9, -2, 6, 11, 10, -2, -2, 10, -2, -2, -2, 5, 6, -2, -2, -2], "threshold": [5.793978691101074, 5.109827280044556, -2.0, 6.5, -2.0, 3.784999966621399, 4.5, 6.5, -2.0, -2.0, 6.5, -2.0, -2.0, -2.0, 0.6500000059604645, 3.6299999952316284, -2.0, -2.0, -2.0], "value": [[[0.4978609625668449, 0.5021390374331551]], [[0.25258964143426293, 0.747410358565737]], [[1.0, 0.0]], [[0.10239234449760766, 0.8976076555023923]], [[1.0, 0.0]], [[0.030991735537190084, 0.96900826446281]], [[0.02494802494802495, 0.975051975051975]], [[0.003875968992248062, 0.9961240310077519]], [[1.0, 0.0]], [[0.0, 1.0]], [[0.04932735426008968, 0.9506726457399103]], [[1.0, 0.0]], [[0.0, 1.0]], [[1.0, 0.0]], [[0.9983739837398374, 0.0016260162601626016]], [[0.9743589743589743, 0.02564102564102564]], [[1.0, 0.0]], [[0.8333333333333334, 0.16666666666666666]], [[1.0, 0.0]]], "n_node_samples": [1183, 797, 143, 654, 51, 603, 599, 319, 2, 317, 280, 14, 266, 4, 386, 21, 17, 4, 365], "impurity": [0.4999908490377192, 0.3775762289487469, 0.0, 0.18381630457178177, 0.0, 0.060062495731165955, 0.04865124199843529, 0.007721891713238338, 0.0, 0.0, 0.09378833276357856, 0.0, 0.0, 0.0, 0.003246744662568579, 0.04996712689020377, 0.0, 0.2777777777777778, 0.0]}, {"children_left": [1, 2, 3, 4, -1, -1, -1, 8, 9, -1, 11, 12, 13, 14, -1, 16, -1, -1, -1, 20, -1, -1, 23, 24, -1, -1, -1, 28, -1, 30, 31, -1, -1, 34, -1, -1, 37, -1, 39, -1, 41, -1, -1], "children_right": [36, 7, 6, 5, -1, -1, -1, 27, 10, -1, 22, 19, 18, 15, -1, 17, -1, -1, -1, 21, -1, -1, 26, 25, -1, -1, -1, 29, -1, 33, 32, -1, -1, 35, -1, -1, 38, -1, 40, -1, 42, -1, -1], "feature": [4, 2, 4, 2, -2, -2, -2, 1, 9, -2, 5, 8, 6, 7, -2, 7, -2, -2, -2, 10, -2, -2, 10, 2, -2, -2, -2, 10, -2, 8, 9, -2, -2, 11, -2, -2, 2, -2, 6, -2, 6, -2, -2], "threshold": [5.793978691101074, 5.100672483444214, 4.1499998569488525, 4.549999952316284, -2.0, -2.0, -2.0, 0.5, 6.5, -2.0, 2.7991591691970825, 1.5, 3.7752158641815186, 1.199844241142273, -2.0, 1.200279414653778, -2.0, -2.0, -2.0, 5.0, -2.0, -2.0, 9.5, 7.6578569412231445, -2.0, -2.0, -2.0, 6.5, -2.0, 1.5, 6.5, -2.0, -2.0, 8.0, -2.0, -2.0, 6.8500001430511475, -2.0, 3.6050000190734863, -2.0, 3.680000066757202, -2.0, -2.0], "value": [[[0.49572192513368984, 0.5042780748663102]], [[0.2611764705882353, 0.7388235294117647]], [[0.9915254237288136, 0.00847457627118644]], [[0.8947368421052632, 0.10526315789473684]], [[1.0, 0.0]], [[0.3333333333333333, 0.6666666666666666]], [[1.0, 0.0]], [[0.09528392685274302, 0.904716073147257]], [[0.04918032786885246, 0.9508196721311475]], [[1.0, 0.0]], [[0.010238907849829351, 0.9897610921501706]], [[0.009259259259259259, 0.9907407407407407]], [[0.004026845637583893, 0.9959731543624161]], [[0.0026917900403768506, 0.9973082099596231]], [[0.0, 1.0]], [[0.0076045627376425855, 0.9923954372623575]], [[1.0, 0.0]], [[0.0, 1.0]], [[0.5, 0.5]], [[0.04201680672268908, 0.957983193277311]], [[1.0, 0.0]], [[0.0, 1.0]], [[0.06666666666666667, 0.9333333333333333]], [[0.1, 0.9]], [[0.5, 0.5]], [[0.0, 1.0]], [[0.0, 1.0]], [[0.43548387096774194, 0.5645161290322581]], [[1.0, 0.0]], [[0.19540229885057472, 0.8045977011494253]], [[0.1038961038961039, 0.8961038961038961]], [[1.0, 0.0]], [[0.0, 1.0]], [[0.9, 0.1]], [[1.0, 0.0]], [[0.75, 0.25]], [[0.9983193277310924, 0.0016806722689075631]], [[1.0, 0.0]], [[0.9925373134328358, 0.007462686567164179]], [[1.0, 0.0]], [[0.9666666666666667, 0.03333333333333333]], [[0.5, 0.5]], [[1.0, 0.0]]], "n_node_samples": [1175, 799, 145, 12, 10, 2, 133, 654, 568, 25, 543, 534, 467, 465, 299, 166, 2, 164, 2, 67, 3, 64, 9, 5, 2, 3, 4, 86, 25, 61, 52, 5, 47, 9, 5, 4, 376, 297, 79, 61, 18, 2, 16], "impurity": [0.4999633961508765, 0.38592664359861595, 0.016805515656420522, 0.18836565096952906, 0.0, 0.4444444444444444, 0.0, 0.17240980027252828, 0.09352324643912924, 0.0, 0.02026814523174414, 0.018347050754458194, 0.008021260303589961, 0.0053690886135107085, 0.0, 0.015093466726423643, 0.0, 0.0, 0.5, 0.0805027893510345, 0.0, 0.0, 0.12444444444444447, 0.18000000000000005, 0.5, 0.0, 0.0, 0.491675338189386, 0.0, 0.3144404809089708, 0.18620340698262772, 0.0, 0.0, 0.18000000000000005, 0.0, 0.375, 0.0033556952192641543, 0.0, 0.014813989752728851, 0.0, 0.06444444444444442, 0.5, 0.0]}, {"children_left": [1, -1, 3, -1, 5, 6, 7, 8, 9, 10, -1, 12, -1, 14, -1, -1, -1, -1, 19, -1, 21, -1, -1, -1, 25, 26, 27, 28, 29, -1, -1, 32, -1, -1, 35, -1, 37, -1, -1, 40, -1, -1, 43, 44, -1, 46, -1, -1, -1], "children_right": [2, -1, 4, -1, 24, 23, 18, 17, 16, 11, -1, 13, -1, 15, -1, -1, -1, -1, 20, -1, 22, -1, -1, -1, 42, 39, 34, 31, 30, -1, -1, 33, -1, -1, 36, -1, 38, -1, -1, 41, -1, -1, 48, 45, -1, 47, -1, -1, -1], "feature": [9, -2, 2, -2, 8, 4, 1, 2, 4, 5, -2, 7, -2, 6, -2, -2, -2, -2, 11, -2, 10, -2, -2, -2, 5, 1, 0, 0, 11, -2, -2, 4, -2, -2, 5, -2, 4, -2, -2, 2, -2, -2, 4, 3, -2, 7, -2, -2, -2], "threshold": [6.5, -2.0, 5.049999952316284, -2.0, 1.5, 5.793978691101074, 0.5, 6.501334190368652, 5.6371331214904785, 1.7939032316207886, -2.0, 1.1934866905212402, -2.0, 2.932850956916809, -2.0, -2.0, -2.0, -2.0, 3.5, -2.0, 6.5, -2.0, -2.0, -2.0, 2.107240319252014, 0.5, 16.5, 13.5, 4.0, -2.0, -2.0, 5.643002510070801, -2.0, -2.0, 1.0465106964111328, -2.0, 5.058136940002441, -2.0, -2.0, 7.75, -2.0, -2.0, 5.799999952316284, 0.5, -2.0, 1.4590617418289185, -2.0, -2.0, -2.0], "value": [[[0.5026737967914439, 0.49732620320855614]], [[1.0, 0.0]], [[0.26365795724465557, 0.7363420427553444]], [[1.0, 0.0]], [[0.13165266106442577, 0.8683473389355743]], [[0.08978675645342311, 0.9102132435465768]], [[0.01338199513381995, 0.98661800486618]], [[0.005449591280653951, 0.9945504087193461]], [[0.019230769230769232, 0.9807692307692307]], [[0.00975609756097561, 0.9902439024390244]], [[0.0, 1.0]],